{"learner":{"attributes":{"best_iteration":"709","best_score":"0.4086989144736839"},"feature_names":[],"feature_types":[],"gradient_booster":{"model":{"cats":{"enc":[],"feature_segments":[],"sorted_idx":[]},"gbtree_model_param":{"num_parallel_tree":"1","num_trees":"760"},"iteration_indptr":[0,1,2,3,4,5,6,7,8,9,10,11,12,13,14,15,16,17,18,19,20,21,22,23,24,25,26,27,28,29,30,31,32,33,34,35,36,37,38,39,40,41,42,43,44,45,46,47,48,49,50,51,52,53,54,55,56,57,58,59,60,61,62,63,64,65,66,67,68,69,70,71,72,73,74,75,76,77,78,79,80,81,82,83,84,85,86,87,88,89,90,91,92,93,94,95,96,97,98,99,100,101,102,103,104,105,106,107,108,109,110,111,112,113,114,115,116,117,118,119,120,121,122,123,124,125,126,127,128,129,130,131,132,133,134,135,136,137,138,139,140,141,142,143,144,145,146,147,148,149,150,151,152,153,154,155,156,157,158,159,160,161,162,163,164,165,166,167,168,169,170,171,172,173,174,175,176,177,178,179,180,181,182,183,184,185,186,187,188,189,190,191,192,193,194,195,196,197,198,199,200,201,202,203,204,205,206,207,208,209,210,211,212,213,214,215,216,217,218,219,220,221,222,223,224,225,226,227,228,229,230,231,232,233,234,235,236,237,238,239,240,241,242,243,244,245,246,247,248,249,250,251,252,253,254,255,256,257,258,259,260,261,262,263,264,265,266,267,268,269,270,271,272,273,274,275,276,277,278,279,280,281,282,283,284,285,286,287,288,289,290,291,292,293,294,295,296,297,298,299,300,301,302,303,304,305,306,307,308,309,310,311,312,313,314,315,316,317,318,319,320,321,322,323,324,325,326,327,328,329,330,331,332,333,334,335,336,337,338,339,340,341,342,343,344,345,346,347,348,349,350,351,352,353,354,355,356,357,358,359,360,361,362,363,364,365,366,367,368,369,370,371,372,373,374,375,376,377,378,379,380,381,382,383,384,385,386,387,388,389,390,391,392,393,394,395,396,397,398,399,400,401,402,403,404,405,406,407,408,409,410,411,412,413,414,415,416,417,418,419,420,421,422,423,424,425,426,427,428,429,430,431,432,433,434,435,436,437,438,439,440,441,442,443,444,445,446,447,448,449,450,451,452,453,454,455,456,457,458,459,460,461,462,463,464,465,466,467,468,469,470,471,472,473,474,475,476,477,478,479,480,481,482,483,484,485,486,487,488,489,490,491,492,493,494,495,496,497,498,499,500,501,502,503,504,505,506,507,508,509,510,511,512,513,514,515,516,517,518,519,520,521,522,523,524,525,526,527,528,529,530,531,532,533,534,535,536,537,538,539,540,541,542,543,544,545,546,547,548,549,550,551,552,553,554,555,556,557,558,559,560,561,562,563,564,565,566,567,568,569,570,571,572,573,574,575,576,577,578,579,580,581,582,583,584,585,586,587,588,589,590,591,592,593,594,595,596,597,598,599,600,601,602,603,604,605,606,607,608,609,610,611,612,613,614,615,616,617,618,619,620,621,622,623,624,625,626,627,628,629,630,631,632,633,634,635,636,637,638,639,640,641,642,643,644,645,646,647,648,649,650,651,652,653,654,655,656,657,658,659,660,661,662,663,664,665,666,667,668,669,670,671,672,673,674,675,676,677,678,679,680,681,682,683,684,685,686,687,688,689,690,691,692,693,694,695,696,697,698,699,700,701,702,703,704,705,706,707,708,709,710,711,712,713,714,715,716,717,718,719,720,721,722,723,724,725,726,727,728,729,730,731,732,733,734,735,736,737,738,739,740,741,742,743,744,745,746,747,748,749,750,751,752,753,754,755,756,757,758,759,760],"tree_info":[0,0,0,0,0,0,0,0,0,0,0,0,0,0,0,0,0,0,0,0,0,0,0,0,0,0,0,0,0,0,0,0,0,0,0,0,0,0,0,0,0,0,0,0,0,0,0,0,0,0,0,0,0,0,0,0,0,0,0,0,0,0,0,0,0,0,0,0,0,0,0,0,0,0,0,0,0,0,0,0,0,0,0,0,0,0,0,0,0,0,0,0,0,0,0,0,0,0,0,0,0,0,0,0,0,0,0,0,0,0,0,0,0,0,0,0,0,0,0,0,0,0,0,0,0,0,0,0,0,0,0,0,0,0,0,0,0,0,0,0,0,0,0,0,0,0,0,0,0,0,0,0,0,0,0,0,0,0,0,0,0,0,0,0,0,0,0,0,0,0,0,0,0,0,0,0,0,0,0,0,0,0,0,0,0,0,0,0,0,0,0,0,0,0,0,0,0,0,0,0,0,0,0,0,0,0,0,0,0,0,0,0,0,0,0,0,0,0,0,0,0,0,0,0,0,0,0,0,0,0,0,0,0,0,0,0,0,0,0,0,0,0,0,0,0,0,0,0,0,0,0,0,0,0,0,0,0,0,0,0,0,0,0,0,0,0,0,0,0,0,0,0,0,0,0,0,0,0,0,0,0,0,0,0,0,0,0,0,0,0,0,0,0,0,0,0,0,0,0,0,0,0,0,0,0,0,0,0,0,0,0,0,0,0,0,0,0,0,0,0,0,0,0,0,0,0,0,0,0,0,0,0,0,0,0,0,0,0,0,0,0,0,0,0,0,0,0,0,0,0,0,0,0,0,0,0,0,0,0,0,0,0,0,0,0,0,0,0,0,0,0,0,0,0,0,0,0,0,0,0,0,0,0,0,0,0,0,0,0,0,0,0,0,0,0,0,0,0,0,0,0,0,0,0,0,0,0,0,0,0,0,0,0,0,0,0,0,0,0,0,0,0,0,0,0,0,0,0,0,0,0,0,0,0,0,0,0,0,0,0,0,0,0,0,0,0,0,0,0,0,0,0,0,0,0,0,0,0,0,0,0,0,0,0,0,0,0,0,0,0,0,0,0,0,0,0,0,0,0,0,0,0,0,0,0,0,0,0,0,0,0,0,0,0,0,0,0,0,0,0,0,0,0,0,0,0,0,0,0,0,0,0,0,0,0,0,0,0,0,0,0,0,0,0,0,0,0,0,0,0,0,0,0,0,0,0,0,0,0,0,0,0,0,0,0,0,0,0,0,0,0,0,0,0,0,0,0,0,0,0,0,0,0,0,0,0,0,0,0,0,0,0,0,0,0,0,0,0,0,0,0,0,0,0,0,0,0,0,0,0,0,0,0,0,0,0,0,0,0,0,0,0,0,0,0,0,0,0,0,0,0,0,0,0,0,0,0,0,0,0,0,0,0,0,0,0,0,0,0,0,0,0,0,0,0,0,0,0,0,0,0,0,0,0,0,0,0,0,0,0,0,0,0,0,0,0,0,0,0,0,0,0,0,0,0,0,0,0,0,0,0,0,0,0,0,0,0,0,0,0,0,0,0,0,0,0,0,0,0,0,0,0,0,0,0,0,0,0,0,0,0,0,0,0,0,0,0,0,0,0,0,0,0,0,0,0,0,0,0,0,0,0,0,0,0,0,0,0,0,0,0,0,0,0,0,0,0,0,0,0,0,0,0,0,0,0,0,0,0,0,0,0,0,0,0,0,0,0,0,0],"trees":[{"base_weights":[8.647391E-3,5.447144E-1,-5.731194E-1,1.4128721E-1,9.672292E-1,-9.5193756E-1,-9.179136E-3,-9.0455025E-1,2.8129563E-1,1.3066175E0,5.283196E-1,-1.5548302E0,-7.153648E-1,-4.917362E-1,4.7282243E-1,-1.4237055E0,5.8049276E-3,5.706343E-1,-2.0575272E-1,9.024913E-1,1.5599552E0,-6.4971164E-2,7.519764E-1,-2.5932375E-2,-1.6398687E0,-5.092621E-1,-1.3825783E0,-1.0060755E0,-8.582422E-2,-5.6297276E-2,8.160489E-1,-1.6868725E0,-3.264552E-2,1.2489972E-2,8.0872136E-1,-2.8823124E-2,-8.635377E-1,3.4218052E-1,1.2091733E0,1.6323645E0,2.57177E-2,-3.2760647E-1,5.3293504E-2,1.2226936E0,4.237815E-1,-5.042808E-2,-1.736704E0,-7.226615E-1,6.708433E-2,-8.6476845E-1,-1.6467867E0,-1.2116004E0,-7.364545E-3,-5.425909E-1,3.879425E-1,-6.0317355E-1,3.528712E-1,1.010498E0,7.665036E-2,-9.313967E-2,-6.5639704E-2,-1.3902581E-2,3.55045E-2,2.9277027E-2,6.4409755E-2,6.1455653E-3,-3.9682362E-2,-7.936011E-3,-6.219492E-2,4.2630937E-2,-2.2992626E-2,7.4982904E-2,3.4109425E-2,5.643661E-2,8.611132E-2,2.8612746E-2,-2.986579E-2,1.7198322E-2,7.0057414E-2,4.0114097E-2,-9.853561E-3,-8.929314E-2,-6.257778E-2,-2.5279853E-2,-6.1678864E-2,2.9512122E-2,-1.9936325E-2,-1.134815E-2,-6.862683E-2,-8.871776E-2,-5.071607E-2,-3.5200667E-2,-7.7150196E-2,-4.099826E-2,8.228036E-3,3.307192E-2,-2.174966E-2,-3.8704579E-3,-4.865327E-2,5.3749274E-2,-1.0697618E-2,1.734118E-2,6.0866226E-2,3.0898929E-2,-1.9778753E-2],"categories":[],"categories_nodes":[],"categories_segments":[],"categories_sizes":[],"default_left":[0,0,0,0,0,0,0,0,0,0,0,0,0,0,0,0,0,0,0,0,0,0,0,0,0,0,0,0,0,0,0,0,0,0,0,0,0,0,0,0,0,0,0,0,0,0,0,0,0,0,0,0,0,0,0,0,0,0,0,0,0,0,0,0,0,0,0,0,0,0,0,0,0,0,0,0,0,0,0,0,0,0,0,0,0,0,0,0,0,0,0,0,0,0,0,0,0,0,0,0,0,0,0,0,0],"id":0,"left_children":[1,3,5,7,9,11,13,15,17,19,21,23,25,27,29,31,-1,33,35,37,39,41,43,-1,45,47,49,51,53,55,57,59,-1,61,63,65,67,69,71,73,-1,75,-1,77,79,-1,81,83,85,87,89,91,-1,93,95,97,99,101,103,-1,-1,-1,-1,-1,-1,-1,-1,-1,-1,-1,-1,-1,-1,-1,-1,-1,-1,-1,-1,-1,-1,-1,-1,-1,-1,-1,-1,-1,-1,-1,-1,-1,-1,-1,-1,-1,-1,-1,-1,-1,-1,-1,-1,-1,-1],"loss_changes":[1.1405905E3,3.2430652E2,3.746787E2,1.4300055E2,1.3777435E2,1.4852472E2,1.6438771E2,6.127912E1,1.2138522E2,5.219049E1,5.405748E1,2.5126831E1,1.0316489E2,7.364671E1,6.4261314E1,1.4421616E1,0E0,7.1762085E1,3.7383926E1,3.4657974E1,2.341986E1,3.3717075E1,4.5158615E1,0E0,1.4875732E1,7.121857E1,2.2883606E1,2.7300156E1,4.316232E1,3.1552763E1,3.0767517E1,1.2671814E0,0E0,3.313626E1,3.9757812E1,2.961312E1,1.8058487E1,3.051923E1,1.9108322E1,1.1597534E1,0E0,2.2655735E1,0E0,1.8481522E1,4.1455086E1,0E0,3.355896E0,4.6219025E1,3.8562206E1,1.9811077E1,7.603058E0,2.0021896E1,0E0,2.0038095E1,2.23471E1,1.1653723E1,3.328049E1,2.2883072E1,1.1940378E1,0E0,0E0,0E0,0E0,0E0,0E0,0E0,0E0,0E0,0E0,0E0,0E0,0E0,0E0,0E0,0E0,0E0,0E0,0E0,0E0,0E0,0E0,0E0,0E0,0E0,0E0,0E0,0E0,0E0,0E0,0E0,0E0,0E0,0E0,0E0,0E0,0E0,0E0,0E0,0E0,0E0,0E0,0E0,0E0,0E0,0E0],"parents":[2147483647,0,0,1,1,2,2,3,3,4,4,5,5,6,6,7,7,8,8,9,9,10,10,11,11,12,12,13,13,14,14,15,15,17,17,18,18,19,19,20,20,21,21,22,22,24,24,25,25,26,26,27,27,28,28,29,29,30,30,31,31,33,33,34,34,35,35,36,36,37,37,38,38,39,39,41,41,43,43,44,44,46,46,47,47,48,48,49,49,50,50,51,51,53,53,54,54,55,55,56,56,57,57,58,58],"right_children":[2,4,6,8,10,12,14,16,18,20,22,24,26,28,30,32,-1,34,36,38,40,42,44,-1,46,48,50,52,54,56,58,60,-1,62,64,66,68,70,72,74,-1,76,-1,78,80,-1,82,84,86,88,90,92,-1,94,96,98,100,102,104,-1,-1,-1,-1,-1,-1,-1,-1,-1,-1,-1,-1,-1,-1,-1,-1,-1,-1,-1,-1,-1,-1,-1,-1,-1,-1,-1,-1,-1,-1,-1,-1,-1,-1,-1,-1,-1,-1,-1,-1,-1,-1,-1,-1,-1,-1],"split_conditions":[-4.780598E-2,4.623881E-2,5.6509156E-2,2.8204613E-3,-4.401279E-2,7.2096847E-3,1.730376E-2,3.951701E-2,-3.0472044E-2,-3.4294073E-2,-4.6058413E-2,4.0839026E-3,-1.4732242E-2,-4.1562274E-2,4.9721085E-2,4.6661373E-2,5.8049276E-3,-8.080835E-2,-3.354498E-2,5.880754E-2,5.0526977E-2,-8.707058E-3,-8.0487885E-2,-2.5932375E-2,2.8423144E-2,2.603322E-2,2.4785914E-2,9.059583E-2,5.8752064E-2,-2.8917145E-2,-2.7452605E-2,3.971979E-2,-3.264552E-2,-2.3721032E-2,-3.4129683E-2,4.9762834E-2,-5.782015E-2,2.5772862E-2,-2.1341115E-2,5.082347E-2,2.57177E-2,-5.2724194E-2,5.3293504E-2,-4.330102E-2,-4.341352E-2,-5.042808E-2,-2.2912615E-3,-1.1195623E-2,3.1669717E-2,3.267996E-2,-2.455242E-2,3.6659695E-2,-7.364545E-3,-3.0380368E-2,6.609427E-2,1.5844263E-2,3.7070855E-2,-9.774899E-3,3.3573933E-2,-9.313967E-2,-6.5639704E-2,-1.3902581E-2,3.55045E-2,2.9277027E-2,6.4409755E-2,6.1455653E-3,-3.9682362E-2,-7.936011E-3,-6.219492E-2,4.2630937E-2,-2.2992626E-2,7.4982904E-2,3.4109425E-2,5.643661E-2,8.611132E-2,2.8612746E-2,-2.986579E-2,1.7198322E-2,7.0057414E-2,4.0114097E-2,-9.853561E-3,-8.929314E-2,-6.257778E-2,-2.5279853E-2,-6.1678864E-2,2.9512122E-2,-1.9936325E-2,-1.134815E-2,-6.862683E-2,-8.871776E-2,-5.071607E-2,-3.5200667E-2,-7.7150196E-2,-4.099826E-2,8.228036E-3,3.307192E-2,-2.174966E-2,-3.8704579E-3,-4.865327E-2,5.3749274E-2,-1.0697618E-2,1.734118E-2,6.0866226E-2,3.0898929E-2,-1.9778753E-2],"split_indices":[240,66,177,128,169,128,216,0,169,196,172,6,240,252,0,113,0,94,376,220,325,361,80,0,171,216,330,65,188,149,169,34,0,369,170,314,266,6,344,220,0,300,0,369,376,0,149,40,130,118,80,145,0,172,353,317,346,367,377,0,0,0,0,0,0,0,0,0,0,0,0,0,0,0,0,0,0,0,0,0,0,0,0,0,0,0,0,0,0,0,0,0,0,0,0,0,0,0,0,0,0,0,0,0,0],"split_type":[0,0,0,0,0,0,0,0,0,0,0,0,0,0,0,0,0,0,0,0,0,0,0,0,0,0,0,0,0,0,0,0,0,0,0,0,0,0,0,0,0,0,0,0,0,0,0,0,0,0,0,0,0,0,0,0,0,0,0,0,0,0,0,0,0,0,0,0,0,0,0,0,0,0,0,0,0,0,0,0,0,0,0,0,0,0,0,0,0,0,0,0,0,0,0,0,0,0,0,0,0,0,0,0,0],"sum_hessian":[3.6553088E3,1.9024065E3,1.7529023E3,9.738682E2,9.2853827E2,1.0481415E3,7.0476086E2,1.1433627E2,8.595319E2,5.2252057E2,4.0601773E2,2.9381015E2,7.543313E2,3.521674E2,3.5259348E2,7.5525276E1,3.8811E1,5.3909973E2,3.2043222E2,2.030986E2,3.1942194E2,1.11350235E2,2.9466748E2,2.282231E1,2.7098782E2,5.776562E2,1.7667513E2,1.5468471E2,1.9748268E2,1.3905757E2,2.1353589E2,5.541638E1,2.0108892E1,1.6151491E2,3.775848E2,2.5333464E2,6.709758E1,7.2590645E1,1.3050797E2,2.9820938E2,2.1212559E1,9.093994E1,2.0410297E1,1.1993043E2,1.7473706E2,3.755663E1,2.334312E2,4.2138083E2,1.5627536E2,6.1134167E1,1.15540955E2,1.24482605E2,3.0202106E1,1.004713E2,9.701139E1,5.9311E1,7.974657E1,1.6878238E2,4.4753513E1,3.498432E1,2.043206E1,1.1444953E2,4.706537E1,2.5917004E2,1.1841475E2,2.1209595E2,4.123869E1,2.4014822E1,4.3082764E1,4.4320595E1,2.8270048E1,8.29426E1,4.756537E1,4.720562E1,2.5100375E2,2.0712559E1,7.022738E1,2.073869E1,9.9191734E1,1.0837466E2,6.6362404E1,2.0952005E2,2.3911154E1,2.9713254E2,1.2424828E2,7.348089E1,8.2794464E1,2.773869E1,3.3395477E1,9.464548E1,2.0895475E1,5.040507E1,7.407754E1,7.2050545E1,2.842075E1,7.2959984E1,2.4051405E1,2.4993916E1,3.431708E1,3.4675117E1,4.5071453E1,4.073783E1,1.2804454E2,2.0707333E1,2.4046179E1],"tree_param":{"num_deleted":"0","num_feature":"384","num_nodes":"105","size_leaf_vector":"1"}},{"base_weights":[4.733676E-3,5.317321E-1,-5.599227E-1,9.8176837E-1,2.0322432E-1,-9.156017E-1,2.1055052E-2,1.1950972E-1,1.1736909E0,-3.3015046E-1,4.6838486E-1,-1.2226381E0,-4.357717E-1,-4.4600883E-1,4.199442E-1,4.418497E-1,-6.8307406E-1,2.6365576E-2,1.2755702E0,-9.854857E-1,-6.8354204E-2,2.1465339E-1,9.3188757E-1,-1.3753673E0,-4.63225E-1,-9.1856855E-1,-3.8590886E-2,-9.296602E-1,-3.6391594E-2,8.49452E-1,1.1596252E-2,-1.2229455E-1,1.014594E0,7.067217E-3,-7.123213E-2,2.722448E-2,-3.3045348E-2,1.4652454E0,7.87799E-1,-2.2697058E-3,-1.2227281E0,6.007754E-1,-3.5712507E-1,-1.6785513E-1,5.5963963E-1,4.3292055E-1,1.1440421E0,-1.6512885E0,-1.1309062E0,2.7358824E-1,-9.456279E-1,-3.64326E-1,-1.1177084E0,5.304093E-1,-4.2601827E-1,-1.1582834E0,2.915465E-3,-6.13254E-1,3.096402E-1,2.0841913E-1,1.1842461E0,-4.058714E-1,4.8984364E-1,1.8339429E-2,-3.7181806E-2,7.770531E-2,2.9719085E-2,7.614317E-2,3.0001014E-2,-7.1785497E-3,4.5645885E-2,-7.5680204E-2,-3.1051591E-2,5.4066416E-2,2.5670913E-3,-2.6040927E-2,2.5594726E-2,8.055864E-3,-3.2884594E-2,-9.600497E-3,3.7532516E-2,-7.864206E-3,4.3747064E-2,6.819122E-2,3.1515855E-2,-5.7879925E-2,-8.619888E-2,-1.9582657E-2,-6.3353255E-2,5.1788986E-2,-1.912998E-2,-7.7788495E-2,-2.3229696E-2,-4.851803E-2,4.3836436E-3,-6.504473E-2,-2.2921659E-2,5.1487304E-2,-2.2436115E-3,8.939582E-3,-3.079818E-2,-1.5477111E-2,-6.71924E-2,-5.633365E-2,6.5078097E-3,-3.7029018E-3,4.857067E-2,-9.519275E-3,4.489712E-2,3.301863E-2,7.273586E-2,-3.5717094E-3,-4.476304E-2,4.5858018E-2,-1.0385774E-2],"categories":[],"categories_nodes":[],"categories_segments":[],"categories_sizes":[],"default_left":[0,0,0,0,0,0,0,0,0,0,0,0,0,0,0,0,0,0,0,0,0,0,0,0,0,0,0,0,0,0,0,0,0,0,0,0,0,0,0,0,0,0,0,0,0,0,0,0,0,0,0,0,0,0,0,0,0,0,0,0,0,0,0,0,0,0,0,0,0,0,0,0,0,0,0,0,0,0,0,0,0,0,0,0,0,0,0,0,0,0,0,0,0,0,0,0,0,0,0,0,0,0,0,0,0,0,0,0,0,0,0,0,0,0,0],"id":1,"left_children":[1,3,5,7,9,11,13,15,17,19,21,23,25,27,29,31,33,35,37,39,41,43,45,47,49,51,53,55,57,59,61,63,65,-1,-1,-1,-1,67,69,-1,71,73,75,77,79,81,83,85,87,89,91,93,95,97,99,101,-1,103,105,107,109,111,113,-1,-1,-1,-1,-1,-1,-1,-1,-1,-1,-1,-1,-1,-1,-1,-1,-1,-1,-1,-1,-1,-1,-1,-1,-1,-1,-1,-1,-1,-1,-1,-1,-1,-1,-1,-1,-1,-1,-1,-1,-1,-1,-1,-1,-1,-1,-1,-1,-1,-1,-1,-1],"loss_changes":[1.0911324E3,2.8019855E2,3.6580487E2,1.3225305E2,1.5538861E2,1.6122833E2,1.2560137E2,3.8270466E1,7.644183E1,6.2563076E1,8.6069046E1,7.695624E1,8.241836E1,6.1493076E1,6.3760223E1,3.4153145E1,2.6152016E1,1.9723932E1,5.4437927E1,2.316877E1,5.0824913E1,6.2820503E1,2.6943512E1,3.5667603E1,4.0609993E1,2.1008606E1,5.246209E1,3.2225586E1,3.3963123E1,3.7780937E1,3.761406E1,1.6667295E1,1.0948555E1,0E0,0E0,0E0,0E0,2.0596619E1,1.9988129E1,0E0,1.3605675E1,2.089095E1,2.6382965E1,3.6553734E1,3.6060593E1,2.0731445E1,1.9606522E1,7.307434E0,2.952237E1,2.3249458E1,1.9479061E1,1.4540754E1,1.6584564E1,2.7746939E1,1.6368656E1,1.780095E1,0E0,2.4487719E1,2.7094341E1,1.7221605E1,1.5501984E1,1.6402199E1,2.6360538E1,0E0,0E0,0E0,0E0,0E0,0E0,0E0,0E0,0E0,0E0,0E0,0E0,0E0,0E0,0E0,0E0,0E0,0E0,0E0,0E0,0E0,0E0,0E0,0E0,0E0,0E0,0E0,0E0,0E0,0E0,0E0,0E0,0E0,0E0,0E0,0E0,0E0,0E0,0E0,0E0,0E0,0E0,0E0,0E0,0E0,0E0,0E0,0E0,0E0,0E0,0E0,0E0],"parents":[2147483647,0,0,1,1,2,2,3,3,4,4,5,5,6,6,7,7,8,8,9,9,10,10,11,11,12,12,13,13,14,14,15,15,16,16,17,17,18,18,19,19,20,20,21,21,22,22,23,23,24,24,25,25,26,26,27,27,28,28,29,29,30,30,31,31,32,32,37,37,38,38,40,40,41,41,42,42,43,43,44,44,45,45,46,46,47,47,48,48,49,49,50,50,51,51,52,52,53,53,54,54,55,55,57,57,58,58,59,59,60,60,61,61,62,62],"right_children":[2,4,6,8,10,12,14,16,18,20,22,24,26,28,30,32,34,36,38,40,42,44,46,48,50,52,54,56,58,60,62,64,66,-1,-1,-1,-1,68,70,-1,72,74,76,78,80,82,84,86,88,90,92,94,96,98,100,102,-1,104,106,108,110,112,114,-1,-1,-1,-1,-1,-1,-1,-1,-1,-1,-1,-1,-1,-1,-1,-1,-1,-1,-1,-1,-1,-1,-1,-1,-1,-1,-1,-1,-1,-1,-1,-1,-1,-1,-1,-1,-1,-1,-1,-1,-1,-1,-1,-1,-1,-1,-1,-1,-1,-1,-1,-1],"split_conditions":[-4.780598E-2,1.7850412E-2,5.8451157E-2,-8.681938E-2,-4.6292126E-2,7.630513E-2,1.6115515E-2,-1.3498467E-2,-6.191912E-2,2.4200045E-2,3.0275386E-2,4.8084687E-2,-4.664115E-2,-4.044448E-2,1.1436125E-2,-4.0925514E-2,-6.4027555E-2,-5.1776376E-2,-3.45291E-2,-6.851343E-2,-4.893464E-2,-3.33097E-2,-2.7041156E-2,1.988782E-2,2.2586184E-2,-7.021069E-2,-4.376E-2,9.059583E-2,5.5690017E-2,4.9721085E-2,5.50434E-2,4.3733057E-2,4.6244334E-2,7.067217E-3,-7.123213E-2,2.722448E-2,-3.3045348E-2,5.106802E-2,3.255229E-2,-2.2697058E-3,5.9007797E-2,-1.9955285E-2,7.801107E-2,6.432044E-2,3.346618E-2,-5.9487242E-2,2.9674016E-2,3.0013487E-2,2.7856823E-2,1.6542874E-2,3.145891E-2,7.246846E-2,-3.1493533E-2,3.556782E-2,-7.619693E-2,1.0420577E-2,2.915465E-3,-3.179959E-2,7.518369E-2,-3.4639273E-2,-5.7865236E-2,5.8925174E-2,-2.9797846E-2,1.8339429E-2,-3.7181806E-2,7.770531E-2,2.9719085E-2,7.614317E-2,3.0001014E-2,-7.1785497E-3,4.5645885E-2,-7.5680204E-2,-3.1051591E-2,5.4066416E-2,2.5670913E-3,-2.6040927E-2,2.5594726E-2,8.055864E-3,-3.2884594E-2,-9.600497E-3,3.7532516E-2,-7.864206E-3,4.3747064E-2,6.819122E-2,3.1515855E-2,-5.7879925E-2,-8.619888E-2,-1.9582657E-2,-6.3353255E-2,5.1788986E-2,-1.912998E-2,-7.7788495E-2,-2.3229696E-2,-4.851803E-2,4.3836436E-3,-6.504473E-2,-2.2921659E-2,5.1487304E-2,-2.2436115E-3,8.939582E-3,-3.079818E-2,-1.5477111E-2,-6.71924E-2,-5.633365E-2,6.5078097E-3,-3.7029018E-3,4.857067E-2,-9.519275E-3,4.489712E-2,3.301863E-2,7.273586E-2,-3.5717094E-3,-4.476304E-2,4.5858018E-2,-1.0385774E-2],"split_indices":[240,158,177,94,172,350,216,300,184,0,216,66,184,252,276,312,157,2,169,273,169,348,316,128,330,251,169,65,175,0,204,299,337,0,0,0,0,271,383,0,255,147,188,144,204,92,225,91,346,276,0,277,172,377,273,171,0,172,370,176,268,299,240,0,0,0,0,0,0,0,0,0,0,0,0,0,0,0,0,0,0,0,0,0,0,0,0,0,0,0,0,0,0,0,0,0,0,0,0,0,0,0,0,0,0,0,0,0,0,0,0,0,0,0,0],"split_type":[0,0,0,0,0,0,0,0,0,0,0,0,0,0,0,0,0,0,0,0,0,0,0,0,0,0,0,0,0,0,0,0,0,0,0,0,0,0,0,0,0,0,0,0,0,0,0,0,0,0,0,0,0,0,0,0,0,0,0,0,0,0,0,0,0,0,0,0,0,0,0,0,0,0,0,0,0,0,0,0,0,0,0,0,0,0,0,0,0,0,0,0,0,0,0,0,0,0,0,0,0,0,0,0,0,0,0,0,0,0,0,0,0,0,0],"sum_hessian":[3.664772E3,1.8956265E3,1.7691454E3,7.990232E2,1.0966033E3,1.0969862E3,6.7215924E2,1.4576436E2,6.5325885E2,3.640552E2,7.325481E2,6.6799646E2,4.2898972E2,3.0956635E2,3.6259293E2,1.04317154E2,4.144721E1,5.3379356E1,5.9987946E2,1.03130905E2,2.609243E2,4.7434464E2,2.582035E2,5.5547186E2,1.12524605E2,1.9303343E2,2.3595628E2,1.4137254E2,1.6819379E2,1.7619138E2,1.8640154E2,5.294934E1,5.136781E1,2.0010494E1,2.1436712E1,3.0553389E1,2.2825966E1,4.3047903E2,1.6940044E2,2.1021786E1,8.210912E1,7.8333115E1,1.8259119E2,2.2518307E2,2.4916158E2,7.793903E1,1.8026445E2,2.5824164E2,2.9723022E2,4.4693478E1,6.783112E1,5.1772022E1,1.4126141E2,9.5431114E1,1.4052518E2,1.1466571E2,2.6706842E1,6.2773365E1,1.05420425E2,6.1005733E1,1.1518564E2,9.960581E1,8.679572E1,2.9857206E1,2.3092136E1,2.1309752E1,3.0058056E1,4.0288925E2,2.7589762E1,2.0044428E1,1.4935602E2,5.4329323E1,2.77798E1,4.1269432E1,3.7063683E1,1.5398616E2,2.860502E1,1.3511288E2,9.007019E1,5.048639E1,1.9867519E2,3.3650986E1,4.4288044E1,1.2509249E2,5.517196E1,3.531492E1,2.2292671E2,4.683318E1,2.5039705E2,2.0409014E1,2.4284462E1,2.8917736E1,3.891339E1,2.1627419E1,3.0144604E1,1.09783714E2,3.1477694E1,5.0664772E1,4.4766342E1,3.3599342E1,1.06925835E2,2.105083E1,9.3614876E1,3.6825287E1,2.5948078E1,6.729225E1,3.8128174E1,3.9109547E1,2.1896189E1,4.0392075E1,7.479357E1,5.9851006E1,3.975481E1,5.362863E1,3.3167095E1],"tree_param":{"num_deleted":"0","num_feature":"384","num_nodes":"115","size_leaf_vector":"1"}},{"base_weights":[-5.614769E-3,5.051234E-1,-5.0909203E-1,9.1076165E-1,1.6071154E-1,-1.2155681E-1,-9.781387E-1,4.1917506E-1,1.1873777E0,4.7611082E-1,-1.7645252E-1,-6.634856E-1,1.9950658E-1,-1.2793362E0,-4.966816E-1,-5.534897E-2,6.260283E-1,1.2994542E0,3.197236E-1,-1.824918E-1,6.6944563E-1,-4.261245E-1,2.9960698E-1,-9.97657E-1,-1.9767071E-1,3.875276E-1,-5.73861E-1,-1.4920322E0,-7.398431E-1,-6.863416E-1,4.9881196E-1,-2.9730573E-2,7.556776E-1,9.028743E-1,1.454283E0,-1.7573375E-2,4.3544915E-2,-4.1189617E-1,3.3641726E-2,3.9479297E-1,1.0336475E0,6.6970505E-2,-6.091178E-1,6.17309E-1,-3.448858E-1,-1.1258489E0,4.994398E-3,-4.6568733E-1,5.254485E-1,6.3035405E-1,-1.9829677E-1,-1.5207832E-1,-9.367393E-1,-6.815033E-1,-1.601948E0,-1.0787668E0,-2.0332953E-1,-9.469577E-1,-8.638858E-3,-1.1127789E-2,4.8363585E-2,4.767364E-2,1.799145E-3,5.8822125E-2,7.09748E-3,4.9174424E-2,7.96791E-2,-3.2803755E-2,2.162577E-2,2.6779776E-2,-1.442949E-2,3.1705838E-2,6.382349E-2,-1.4085136E-2,4.342526E-2,-4.0985163E-2,-7.388209E-3,9.405655E-3,5.3139206E-2,1.3695109E-2,-4.5024034E-2,-7.776203E-2,-4.1914374E-2,-3.770812E-2,2.2990359E-2,-4.792349E-3,5.668514E-2,3.5835482E-2,-3.7201293E-2,8.176864E-3,-4.0827934E-2,2.4087561E-2,-2.5219653E-2,-1.7525468E-2,-6.7012064E-2,-7.941471E-4,-6.2128525E-2,-8.2881786E-2,-3.8618978E-2,-6.522487E-2,-2.5814775E-2,-3.5440203E-2,1.7368842E-2,-3.6714412E-3,-5.5300493E-2,-2.902988E-2,2.4219396E-2],"categories":[],"categories_nodes":[],"categories_segments":[],"categories_sizes":[],"default_left":[0,0,0,0,0,0,0,0,0,0,0,0,0,0,0,0,0,0,0,0,0,0,0,0,0,0,0,0,0,0,0,0,0,0,0,0,0,0,0,0,0,0,0,0,0,0,0,0,0,0,0,0,0,0,0,0,0,0,0,0,0,0,0,0,0,0,0,0,0,0,0,0,0,0,0,0,0,0,0,0,0,0,0,0,0,0,0,0,0,0,0,0,0,0,0,0,0,0,0,0,0,0,0,0,0,0,0],"id":2,"left_children":[1,3,5,7,9,11,13,15,17,19,21,23,25,27,29,-1,31,33,35,37,39,41,43,45,47,49,51,53,55,57,59,-1,61,63,65,-1,-1,67,-1,69,71,73,75,77,79,81,-1,83,85,87,89,91,93,95,97,99,101,103,105,-1,-1,-1,-1,-1,-1,-1,-1,-1,-1,-1,-1,-1,-1,-1,-1,-1,-1,-1,-1,-1,-1,-1,-1,-1,-1,-1,-1,-1,-1,-1,-1,-1,-1,-1,-1,-1,-1,-1,-1,-1,-1,-1,-1,-1,-1,-1,-1],"loss_changes":[9.375811E2,2.5272437E2,3.3363376E2,1.1249103E2,1.043087E2,1.7526642E2,1.19805664E2,9.563486E1,5.123767E1,6.463598E1,5.6518192E1,5.8130157E1,9.2244736E1,5.745038E1,6.099872E1,0E0,4.2463806E1,2.7551025E1,2.3275877E1,2.2992147E1,3.879303E1,2.8159924E1,3.3753166E1,3.0775162E1,3.0821667E1,7.262871E1,1.8862644E1,3.1426819E1,2.637918E1,4.7727524E1,1.7784674E1,0E0,3.4192154E1,2.7858406E1,2.049762E1,0E0,0E0,1.9233046E1,0E0,2.1807709E1,1.5475906E1,2.406912E1,2.1969856E1,2.0846535E1,1.9061754E1,2.280194E1,0E0,3.1219667E1,1.6408812E1,4.3326782E1,3.371576E1,1.3332965E1,1.5272888E1,1.6908464E1,1.3534119E1,1.0679077E1,1.635342E1,2.7038681E1,2.1734259E1,0E0,0E0,0E0,0E0,0E0,0E0,0E0,0E0,0E0,0E0,0E0,0E0,0E0,0E0,0E0,0E0,0E0,0E0,0E0,0E0,0E0,0E0,0E0,0E0,0E0,0E0,0E0,0E0,0E0,0E0,0E0,0E0,0E0,0E0,0E0,0E0,0E0,0E0,0E0,0E0,0E0,0E0,0E0,0E0,0E0,0E0,0E0,0E0],"parents":[2147483647,0,0,1,1,2,2,3,3,4,4,5,5,6,6,7,7,8,8,9,9,10,10,11,11,12,12,13,13,14,14,16,16,17,17,18,18,19,19,20,20,21,21,22,22,23,23,24,24,25,25,26,26,27,27,28,28,29,29,30,30,32,32,33,33,34,34,37,37,39,39,40,40,41,41,42,42,43,43,44,44,45,45,47,47,48,48,49,49,50,50,51,51,52,52,53,53,54,54,55,55,56,56,57,57,58,58],"right_children":[2,4,6,8,10,12,14,16,18,20,22,24,26,28,30,-1,32,34,36,38,40,42,44,46,48,50,52,54,56,58,60,-1,62,64,66,-1,-1,68,-1,70,72,74,76,78,80,82,-1,84,86,88,90,92,94,96,98,100,102,104,106,-1,-1,-1,-1,-1,-1,-1,-1,-1,-1,-1,-1,-1,-1,-1,-1,-1,-1,-1,-1,-1,-1,-1,-1,-1,-1,-1,-1,-1,-1,-1,-1,-1,-1,-1,-1,-1,-1,-1,-1,-1,-1,-1,-1,-1,-1,-1,-1],"split_conditions":[-4.904778E-2,-4.60344E-2,3.2448016E-2,4.161159E-2,2.6345693E-2,-8.4411584E-2,-6.757571E-2,-2.1310826E-3,4.7211703E-2,-8.6548895E-2,-2.5549596E-2,-4.3146558E-2,-1.9632876E-2,7.681147E-2,7.487341E-2,-5.534897E-2,-1.0098769E-1,4.5849513E-2,-3.721981E-2,5.0997343E-2,4.7841895E-2,2.710442E-2,1.1686733E-2,7.84516E-2,-4.6031244E-2,3.1962097E-2,4.979272E-2,5.7862975E-2,5.6720387E-2,-6.494964E-2,2.736297E-2,-2.9730573E-2,3.992906E-2,3.880109E-2,5.5671494E-2,-1.7573375E-2,4.3544915E-2,7.516673E-2,3.3641726E-2,-1.6527466E-2,-4.9087014E-2,7.25119E-2,-4.2873863E-2,-3.331136E-2,-5.676147E-2,-4.964177E-2,4.994398E-3,7.595138E-2,-2.6088456E-2,1.0303302E-1,5.5684205E-2,3.354778E-2,-2.7700454E-2,1.4552221E-2,3.66457E-2,4.0429574E-2,-7.806484E-2,-6.0553225E-3,7.1907625E-2,-1.1127789E-2,4.8363585E-2,4.767364E-2,1.799145E-3,5.8822125E-2,7.09748E-3,4.9174424E-2,7.96791E-2,-3.2803755E-2,2.162577E-2,2.6779776E-2,-1.442949E-2,3.1705838E-2,6.382349E-2,-1.4085136E-2,4.342526E-2,-4.0985163E-2,-7.388209E-3,9.405655E-3,5.3139206E-2,1.3695109E-2,-4.5024034E-2,-7.776203E-2,-4.1914374E-2,-3.770812E-2,2.2990359E-2,-4.792349E-3,5.668514E-2,3.5835482E-2,-3.7201293E-2,8.176864E-3,-4.0827934E-2,2.4087561E-2,-2.5219653E-2,-1.7525468E-2,-6.7012064E-2,-7.941471E-4,-6.2128525E-2,-8.2881786E-2,-3.8618978E-2,-6.522487E-2,-2.5814775E-2,-3.5440203E-2,1.7368842E-2,-3.6714412E-3,-5.5300493E-2,-2.902988E-2,2.4219396E-2],"split_indices":[240,169,330,66,158,94,57,128,158,94,172,172,169,350,188,0,94,113,245,54,66,45,63,188,227,276,299,64,255,94,358,0,158,382,244,0,0,188,0,327,196,177,170,245,376,252,0,177,261,64,59,47,40,74,281,333,94,276,65,0,0,0,0,0,0,0,0,0,0,0,0,0,0,0,0,0,0,0,0,0,0,0,0,0,0,0,0,0,0,0,0,0,0,0,0,0,0,0,0,0,0,0,0,0,0,0,0],"split_type":[0,0,0,0,0,0,0,0,0,0,0,0,0,0,0,0,0,0,0,0,0,0,0,0,0,0,0,0,0,0,0,0,0,0,0,0,0,0,0,0,0,0,0,0,0,0,0,0,0,0,0,0,0,0,0,0,0,0,0,0,0,0,0,0,0,0,0,0,0,0,0,0,0,0,0,0,0,0,0,0,0,0,0,0,0,0,0,0,0,0,0,0,0,0,0,0,0,0,0,0,0,0,0,0,0,0,0],"sum_hessian":[3.6441177E3,1.809013E3,1.8351049E3,8.299168E2,9.7909607E2,1.00555524E3,8.295496E2,2.99744E2,5.301728E2,5.0566287E2,4.7343323E2,3.7370508E2,6.3185016E2,5.0928552E2,3.202641E2,3.525829E1,2.6448572E2,4.6908282E2,6.1089973E1,1.14765564E2,3.908973E2,3.1062772E2,1.628055E2,2.1693564E2,1.5676942E2,5.0867908E2,1.2317109E2,3.6400888E2,1.4527664E2,2.6927313E2,5.0990982E1,2.5050512E1,2.394352E2,1.3363081E2,3.35452E2,2.7709345E1,3.338063E1,9.090315E1,2.3862413E1,2.2403307E2,1.6686424E2,8.4247604E1,2.2638011E2,1.09077866E2,5.372764E1,1.9422467E2,2.2710972E1,1.1463657E2,4.213285E1,3.595629E2,1.491162E2,5.7618607E1,6.555248E1,4.4328293E1,3.1968057E2,8.841369E1,5.686296E1,1.9419612E2,7.5076996E1,2.0282879E1,3.0708103E1,1.8756226E2,5.1872936E1,9.789092E1,3.573989E1,7.843214E1,2.5701987E2,7.0685905E1,2.0217241E1,1.8593892E2,3.8094154E1,6.4443214E1,1.02421036E2,5.916079E1,2.5086817E1,1.5489937E2,7.148074E1,5.627837E1,5.279949E1,2.5658154E1,2.8069487E1,7.613306E1,1.18091606E2,8.753667E1,2.7099907E1,2.125973E1,2.0873121E1,3.3875653E2,2.0806356E1,9.4529106E1,5.4587097E1,2.0453852E1,3.7164757E1,2.7486797E1,3.806568E1,2.0745382E1,2.3582912E1,2.9863544E2,2.1045143E1,6.2151764E1,2.626192E1,2.9499393E1,2.7363567E1,3.013787E1,1.6405826E2,3.4674088E1,4.0402912E1],"tree_param":{"num_deleted":"0","num_feature":"384","num_nodes":"107","size_leaf_vector":"1"}},{"base_weights":[9.564296E-3,4.81374E-1,-5.0526154E-1,6.493635E-1,-3.142265E-1,-8.397228E-1,3.75722E-2,9.271137E-1,1.598894E-1,-7.0288134E-1,3.2194784E-1,-1.1284788E0,-3.989994E-1,-2.5230137E-1,5.165892E-1,1.0857265E0,4.0949148E-1,4.2935172E-1,-2.6311356E-1,-9.7402316E-1,-2.0650255E-3,8.37331E-1,-2.4944751E-1,-4.9421906E-1,-1.30536E0,-7.194504E-1,1.5354574E-1,-5.619704E-1,3.0517402E-1,1.2941627E-1,1.0110285E0,6.1982703E-1,1.20518E0,9.729562E-1,1.3639463E-1,7.258837E-1,6.483948E-2,-9.0291226E-1,-5.378491E-2,-1.2290167E0,-6.603303E-3,-2.8169176E-2,3.557316E-2,6.0282577E-2,1.7213713E-2,1.5865931E-2,-5.3707343E-2,-7.0375705E-1,3.142228E-2,-1.4340615E0,-8.0322707E-1,-8.31007E-1,9.439692E-3,6.914517E-1,-3.3903632E-1,-9.8748285E-1,-1.2982386E-1,-9.6208476E-2,8.6235714E-1,3.318679E-1,-3.2014582E-2,1.237989E0,1.9549383E-2,2.3740835E-3,4.4904597E-2,6.362764E-2,1.7775401E-2,6.6377036E-2,1.4696288E-2,-3.0962592E-2,1.5176348E-2,-9.41012E-3,4.418677E-2,4.911202E-2,-5.181232E-3,-2.5666296E-2,-6.634603E-2,1.01926625E-2,-3.0641323E-2,-2.3983033E-2,-6.9390446E-2,-4.808334E-2,3.5356947E-3,-7.4130826E-2,-2.4937434E-2,-5.6526896E-2,-8.651147E-3,-6.3952856E-2,-3.2507714E-2,2.4831463E-3,6.125238E-2,-3.1019766E-2,2.0925356E-2,-6.8140924E-2,-3.107231E-2,1.9192485E-2,-3.131665E-2,-3.064099E-2,1.7370585E-2,1.1021643E-2,6.576508E-2,3.286969E-3,4.155339E-2,7.055645E-2,3.5141133E-2],"categories":[],"categories_nodes":[],"categories_segments":[],"categories_sizes":[],"default_left":[0,0,0,0,0,0,0,0,0,0,0,0,0,0,0,0,0,0,0,0,0,0,0,0,0,0,0,0,0,0,0,0,0,0,0,0,0,0,0,0,0,0,0,0,0,0,0,0,0,0,0,0,0,0,0,0,0,0,0,0,0,0,0,0,0,0,0,0,0,0,0,0,0,0,0,0,0,0,0,0,0,0,0,0,0,0,0,0,0,0,0,0,0,0,0,0,0,0,0,0,0,0,0,0,0],"id":3,"left_children":[1,3,5,7,9,11,13,15,17,19,21,23,25,27,29,31,33,35,37,39,41,43,45,47,49,51,53,55,57,59,61,63,65,67,69,71,73,75,77,79,-1,-1,-1,-1,-1,-1,-1,81,-1,83,85,87,-1,89,91,93,95,97,99,101,-1,103,-1,-1,-1,-1,-1,-1,-1,-1,-1,-1,-1,-1,-1,-1,-1,-1,-1,-1,-1,-1,-1,-1,-1,-1,-1,-1,-1,-1,-1,-1,-1,-1,-1,-1,-1,-1,-1,-1,-1,-1,-1,-1,-1],"loss_changes":[8.873561E2,2.5497461E2,3.1720425E2,2.1386902E2,8.256081E1,1.371181E2,9.2742195E1,8.1994446E1,6.520952E1,3.933728E1,3.7600418E1,7.256305E1,7.61494E1,7.2020134E1,4.806787E1,4.19942E1,3.6355843E1,3.770307E1,2.9798288E1,3.188527E1,2.393324E1,1.1750027E1,2.8845589E1,3.429495E1,3.1783691E1,2.7714462E1,4.2220528E1,4.9137352E1,3.3467648E1,2.2395119E1,1.5055511E1,2.524572E1,3.4478577E1,1.820861E1,2.050555E1,2.7939873E1,2.448414E1,8.383682E0,2.4463377E1,1.29531555E1,0E0,0E0,0E0,0E0,0E0,0E0,0E0,2.4385494E1,0E0,1.762555E1,2.1720596E1,1.8811676E1,0E0,2.599128E1,1.8032658E1,1.7678741E1,3.4435043E1,2.030484E1,1.7913494E1,1.500625E1,0E0,6.455597E0,0E0,0E0,0E0,0E0,0E0,0E0,0E0,0E0,0E0,0E0,0E0,0E0,0E0,0E0,0E0,0E0,0E0,0E0,0E0,0E0,0E0,0E0,0E0,0E0,0E0,0E0,0E0,0E0,0E0,0E0,0E0,0E0,0E0,0E0,0E0,0E0,0E0,0E0,0E0,0E0,0E0,0E0,0E0],"parents":[2147483647,0,0,1,1,2,2,3,3,4,4,5,5,6,6,7,7,8,8,9,9,10,10,11,11,12,12,13,13,14,14,15,15,16,16,17,17,18,18,19,19,20,20,21,21,22,22,23,23,24,24,25,25,26,26,27,27,28,28,29,29,30,30,31,31,32,32,33,33,34,34,35,35,36,36,37,37,38,38,39,39,47,47,49,49,50,50,51,51,53,53,54,54,55,55,56,56,57,57,58,58,59,59,61,61],"right_children":[2,4,6,8,10,12,14,16,18,20,22,24,26,28,30,32,34,36,38,40,42,44,46,48,50,52,54,56,58,60,62,64,66,68,70,72,74,76,78,80,-1,-1,-1,-1,-1,-1,-1,82,-1,84,86,88,-1,90,92,94,96,98,100,102,-1,104,-1,-1,-1,-1,-1,-1,-1,-1,-1,-1,-1,-1,-1,-1,-1,-1,-1,-1,-1,-1,-1,-1,-1,-1,-1,-1,-1,-1,-1,-1,-1,-1,-1,-1,-1,-1,-1,-1,-1,-1,-1,-1,-1],"split_conditions":[-4.780598E-2,5.0526977E-2,5.8105867E-2,-3.45291E-2,-3.7905294E-2,7.630513E-2,-3.0380368E-2,3.701828E-2,3.3922613E-2,8.968391E-2,-4.730233E-2,1.9012962E-2,-3.4463402E-2,6.490073E-2,4.9782433E-2,5.1026676E-2,1.107915E-2,5.0843738E-2,2.5789453E-2,5.281731E-3,-7.933853E-3,2.5078822E-2,3.127319E-2,5.545215E-2,6.487988E-2,3.6959462E-2,-3.988532E-2,-3.9399967E-2,5.1420975E-2,7.2021626E-2,-3.978411E-2,-3.545291E-2,6.9968246E-2,-4.0264845E-2,9.659507E-4,4.089121E-2,-5.25795E-2,-2.694089E-2,3.868869E-2,-5.549959E-3,-6.603303E-3,-2.8169176E-2,3.557316E-2,6.0282577E-2,1.7213713E-2,1.5865931E-2,-5.3707343E-2,6.1727595E-2,3.142228E-2,-1.4524415E-2,-3.6265682E-2,-6.6703245E-2,9.439692E-3,-4.6225227E-2,-3.1120246E-2,-4.1308846E-2,-1.7951624E-2,7.9795845E-2,-5.1001873E-2,-4.4742554E-2,-3.2014582E-2,4.433168E-2,1.9549383E-2,2.3740835E-3,4.4904597E-2,6.362764E-2,1.7775401E-2,6.6377036E-2,1.4696288E-2,-3.0962592E-2,1.5176348E-2,-9.41012E-3,4.418677E-2,4.911202E-2,-5.181232E-3,-2.5666296E-2,-6.634603E-2,1.01926625E-2,-3.0641323E-2,-2.3983033E-2,-6.9390446E-2,-4.808334E-2,3.5356947E-3,-7.4130826E-2,-2.4937434E-2,-5.6526896E-2,-8.651147E-3,-6.3952856E-2,-3.2507714E-2,2.4831463E-3,6.125238E-2,-3.1019766E-2,2.0925356E-2,-6.8140924E-2,-3.107231E-2,1.9192485E-2,-3.131665E-2,-3.064099E-2,1.7370585E-2,1.1021643E-2,6.576508E-2,3.286969E-3,4.155339E-2,7.055645E-2,3.5141133E-2],"split_indices":[240,325,177,169,184,350,172,130,130,65,50,330,184,188,66,220,158,250,131,286,248,130,158,66,365,367,169,184,284,353,331,172,47,104,260,220,99,168,158,74,0,0,0,0,0,0,0,284,0,369,172,184,0,312,278,252,40,177,356,93,0,225,0,0,0,0,0,0,0,0,0,0,0,0,0,0,0,0,0,0,0,0,0,0,0,0,0,0,0,0,0,0,0,0,0,0,0,0,0,0,0,0,0,0,0],"split_type":[0,0,0,0,0,0,0,0,0,0,0,0,0,0,0,0,0,0,0,0,0,0,0,0,0,0,0,0,0,0,0,0,0,0,0,0,0,0,0,0,0,0,0,0,0,0,0,0,0,0,0,0,0,0,0,0,0,0,0,0,0,0,0,0,0,0,0,0,0,0,0,0,0,0,0,0,0,0,0,0,0,0,0,0,0,0,0,0,0,0,0,0,0,0,0,0,0,0,0,0,0,0,0,0,0],"sum_hessian":[3.6511758E3,1.9052153E3,1.7459606E3,1.5732173E3,3.3199805E2,1.0799895E3,6.6597107E2,1.0031115E3,5.701058E2,2.0602646E2,1.2597158E2,6.5154535E2,4.284441E2,4.1519327E2,2.5077782E2,7.669888E2,2.3612273E2,3.4824863E2,2.2185715E2,1.482713E2,5.7755154E1,6.598736E1,5.9984222E1,1.4290642E2,5.0863895E2,2.709838E2,1.5746033E2,2.6691693E2,1.4827632E2,1.413527E2,1.0942512E2,1.5778302E2,6.0920575E2,7.624605E1,1.5987668E2,1.9148416E2,1.5676445E2,5.387587E1,1.6798128E2,1.134518E2,3.4819504E1,3.2443176E1,2.531198E1,3.6944225E1,2.9043133E1,3.591633E1,2.4067894E1,1.2074356E2,2.2162855E1,4.0339026E2,1.0524871E2,2.4141644E2,2.9567331E1,7.507439E1,8.238594E1,1.3384329E2,1.3307365E2,8.666912E1,6.160721E1,1.1236646E2,2.8986238E1,7.937426E1,3.0050858E1,5.1999393E1,1.05783615E2,5.63988E2,4.5217796E1,4.946221E1,2.6783834E1,2.8466673E1,1.3141E2,2.8169312E1,1.6331487E2,2.3571447E1,1.33193E2,2.9229725E1,2.4646145E1,1.154231E2,5.255818E1,2.054039E1,9.291141E1,9.039803E1,3.0345528E1,3.8292618E2,2.0464071E1,6.874863E1,3.650008E1,6.76776E1,1.7373885E2,3.457816E1,4.0496227E1,6.0205917E1,2.2180021E1,6.473774E1,6.910555E1,6.551779E1,6.755586E1,3.9864315E1,4.6804806E1,2.610178E1,3.5505424E1,7.40313E1,3.833516E1,5.873514E1,2.063912E1],"tree_param":{"num_deleted":"0","num_feature":"384","num_nodes":"105","size_leaf_vector":"1"}},{"base_weights":[-2.9865393E-4,4.9635297E-1,-4.5136535E-1,8.903465E-1,1.7104693E-1,-6.575364E-1,3.2463104E-1,1.0046207E0,-2.4544545E-1,3.368888E-1,-5.170679E-1,-9.561292E-1,-2.1495669E-1,7.0564824E-1,-1.192322E-1,1.201488E0,5.389901E-1,-5.0510712E-2,1.8821677E-2,8.300835E-1,9.7771406E-2,-1.0235752E0,-2.2766009E-1,-1.1562573E0,-3.5671163E-1,-7.080551E-1,9.001533E-2,1.9738202E-1,1.0452018E0,-5.7890576E-1,6.704678E-1,7.031832E-1,1.3380566E0,5.082724E-2,8.974427E-1,-4.4485647E-3,9.749648E-1,-4.9757624E-1,2.9726145E-1,-1.3575048E0,-1.5380494E-2,-6.4005035E-1,1.5742882E-1,-1.4523312E0,-9.017606E-1,-1.6418448E-1,-1.1992869E0,-8.753975E-1,-7.009987E-2,4.0664503E-1,-4.1955128E-1,5.972247E-1,-1.7190328E-2,1.3759553E0,6.6000485E-1,-6.2523335E-2,-2.3253554E-1,5.751419E-2,2.5979348E-3,1.174094E-2,6.427429E-2,4.468379E-2,7.209072E-2,-1.54954195E-2,4.2929724E-2,5.516217E-2,-5.6725356E-4,5.794395E-2,2.2031464E-2,1.7755684E-2,-3.3703525E-2,-1.6502118E-3,3.4089837E-2,-8.364698E-2,-4.949687E-2,-4.9632248E-2,-1.7895542E-4,3.92952E-2,-8.36034E-3,-7.5065516E-2,-3.5699856E-2,-5.6919552E-2,-2.2258326E-2,1.7849337E-2,-2.1953342E-2,-3.9922412E-2,-7.65379E-2,-3.180654E-2,-6.918528E-2,2.3444595E-2,-3.02196E-2,3.707737E-4,4.346175E-2,-3.4664642E-2,1.2218036E-2,7.193401E-3,5.6188412E-2,4.7105085E-2,8.000415E-2,-1.1180778E-3,5.2667093E-2,8.92873E-3,-4.1754127E-2],"categories":[],"categories_nodes":[],"categories_segments":[],"categories_sizes":[],"default_left":[0,0,0,0,0,0,0,0,0,0,0,0,0,0,0,0,0,0,0,0,0,0,0,0,0,0,0,0,0,0,0,0,0,0,0,0,0,0,0,0,0,0,0,0,0,0,0,0,0,0,0,0,0,0,0,0,0,0,0,0,0,0,0,0,0,0,0,0,0,0,0,0,0,0,0,0,0,0,0,0,0,0,0,0,0,0,0,0,0,0,0,0,0,0,0,0,0,0,0,0,0,0,0],"id":4,"left_children":[1,3,5,7,9,11,13,15,17,19,21,23,25,27,29,31,33,-1,-1,35,37,39,41,43,45,47,49,51,53,55,57,59,61,63,65,-1,67,69,71,73,-1,75,77,79,81,83,85,87,89,91,93,95,-1,97,99,-1,101,-1,-1,-1,-1,-1,-1,-1,-1,-1,-1,-1,-1,-1,-1,-1,-1,-1,-1,-1,-1,-1,-1,-1,-1,-1,-1,-1,-1,-1,-1,-1,-1,-1,-1,-1,-1,-1,-1,-1,-1,-1,-1,-1,-1,-1,-1],"loss_changes":[8.123443E2,2.2105038E2,3.042371E2,1.0152234E2,1.08196075E2,1.9824878E2,6.7658844E1,6.4359375E1,3.4686714E1,8.994233E1,2.6771828E1,1.0712488E2,9.123721E1,3.692498E1,6.769571E1,3.2923157E1,3.7146626E1,0E0,0E0,3.325804E1,6.1340225E1,1.5529381E1,1.8923044E1,4.9296204E1,3.6436478E1,2.4684425E1,6.075312E1,1.9117981E1,1.5495132E1,2.7095444E1,2.0323326E1,2.9466625E1,1.6668823E1,2.6797628E1,2.2922829E1,0E0,2.064531E1,1.9756847E1,4.9113384E1,3.583725E0,0E0,1.288471E1,1.2799944E1,1.009552E1,3.880005E1,2.6657455E1,4.3375397E0,2.1442245E1,1.44676895E1,4.2856552E1,2.6411423E1,1.1924215E1,0E0,5.138611E0,1.6503595E1,0E0,1.9694185E1,0E0,0E0,0E0,0E0,0E0,0E0,0E0,0E0,0E0,0E0,0E0,0E0,0E0,0E0,0E0,0E0,0E0,0E0,0E0,0E0,0E0,0E0,0E0,0E0,0E0,0E0,0E0,0E0,0E0,0E0,0E0,0E0,0E0,0E0,0E0,0E0,0E0,0E0,0E0,0E0,0E0,0E0,0E0,0E0,0E0,0E0],"parents":[2147483647,0,0,1,1,2,2,3,3,4,4,5,5,6,6,7,7,8,8,9,9,10,10,11,11,12,12,13,13,14,14,15,15,16,16,19,19,20,20,21,21,22,22,23,23,24,24,25,25,26,26,27,27,28,28,29,29,30,30,31,31,32,32,33,33,34,34,36,36,37,37,38,38,39,39,41,41,42,42,43,43,44,44,45,45,46,46,47,47,48,48,49,49,50,50,51,51,53,53,54,54,56,56],"right_children":[2,4,6,8,10,12,14,16,18,20,22,24,26,28,30,32,34,-1,-1,36,38,40,42,44,46,48,50,52,54,56,58,60,62,64,66,-1,68,70,72,74,-1,76,78,80,82,84,86,88,90,92,94,96,-1,98,100,-1,102,-1,-1,-1,-1,-1,-1,-1,-1,-1,-1,-1,-1,-1,-1,-1,-1,-1,-1,-1,-1,-1,-1,-1,-1,-1,-1,-1,-1,-1,-1,-1,-1,-1,-1,-1,-1,-1,-1,-1,-1,-1,-1,-1,-1,-1,-1],"split_conditions":[-5.0463688E-2,-4.6509106E-2,5.249744E-2,6.020765E-2,5.1398873E-2,7.630513E-2,3.557566E-2,3.2338023E-2,-1.8833686E-2,1.3461345E-2,2.9644037E-2,6.440267E-2,-4.7375694E-2,-3.6410935E-2,6.440264E-2,2.7418643E-2,-3.5069317E-2,-5.0510712E-2,1.8821677E-2,-8.995922E-2,2.753364E-2,3.4591492E-2,1.701931E-2,2.08828E-2,6.318751E-2,2.7037589E-2,-3.2079596E-2,5.242044E-2,-4.5508612E-2,-6.1243877E-2,2.0189378E-2,-5.6748614E-2,-6.0655456E-2,-2.429691E-2,8.10151E-2,-4.4485647E-3,3.9425526E-2,-8.155885E-3,4.517238E-2,5.8094382E-2,-1.5380494E-2,-3.178123E-2,-3.3185635E-2,4.055291E-3,-3.4642287E-2,7.2930455E-3,-6.6867374E-2,4.3393258E-2,-4.5353625E-2,-4.0274367E-2,-2.3196219E-2,2.3158964E-2,-1.7190328E-2,-2.8666213E-2,2.4211513E-2,-6.2523335E-2,-6.8392985E-2,5.751419E-2,2.5979348E-3,1.174094E-2,6.427429E-2,4.468379E-2,7.209072E-2,-1.54954195E-2,4.2929724E-2,5.516217E-2,-5.6725356E-4,5.794395E-2,2.2031464E-2,1.7755684E-2,-3.3703525E-2,-1.6502118E-3,3.4089837E-2,-8.364698E-2,-4.949687E-2,-4.9632248E-2,-1.7895542E-4,3.92952E-2,-8.36034E-3,-7.5065516E-2,-3.5699856E-2,-5.6919552E-2,-2.2258326E-2,1.7849337E-2,-2.1953342E-2,-3.9922412E-2,-7.65379E-2,-3.180654E-2,-6.918528E-2,2.3444595E-2,-3.02196E-2,3.707737E-4,4.346175E-2,-3.4664642E-2,1.2218036E-2,7.193401E-3,5.6188412E-2,4.7105085E-2,8.000415E-2,-1.1180778E-3,5.2667093E-2,8.92873E-3,-4.1754127E-2],"split_indices":[240,169,66,325,314,350,314,158,335,158,28,177,184,348,188,282,196,0,0,94,131,295,281,128,45,367,169,353,169,184,35,94,92,185,277,0,325,276,66,311,0,79,169,149,369,276,211,171,301,312,149,216,0,142,249,0,211,0,0,0,0,0,0,0,0,0,0,0,0,0,0,0,0,0,0,0,0,0,0,0,0,0,0,0,0,0,0,0,0,0,0,0,0,0,0,0,0,0,0,0,0,0,0],"split_type":[0,0,0,0,0,0,0,0,0,0,0,0,0,0,0,0,0,0,0,0,0,0,0,0,0,0,0,0,0,0,0,0,0,0,0,0,0,0,0,0,0,0,0,0,0,0,0,0,0,0,0,0,0,0,0,0,0,0,0,0,0,0,0,0,0,0,0,0,0,0,0,0,0,0,0,0,0,0,0,0,0,0,0,0,0,0,0,0,0,0,0,0,0,0,0,0,0,0,0,0,0,0,0],"sum_hessian":[3.6241643E3,1.7248738E3,1.8992905E3,7.7929535E2,9.455784E2,1.5007228E3,3.985677E2,7.0816144E2,7.113392E1,7.6235455E2,1.8322388E2,8.954405E2,6.0528235E2,2.1414954E2,1.8441815E2,4.96614E2,2.1154744E2,3.1621841E1,3.951208E1,2.4811998E2,5.1423456E2,6.57008E1,1.1752308E2,6.706133E2,2.2482718E2,2.3079553E2,3.744868E2,8.6400635E1,1.277489E2,1.1673515E2,6.768301E1,1.081501E2,3.884639E2,9.005153E1,1.2149591E2,3.3840244E1,2.1427974E2,1.2868866E2,3.8554593E2,4.4192944E1,2.1507856E1,5.6430153E1,6.1092922E1,3.0780978E2,3.6280353E2,1.8398236E2,4.0844822E1,1.8254092E2,4.825461E1,2.3109386E2,1.4339294E2,4.9629593E1,3.677104E1,6.734785E1,6.040106E1,3.8833164E1,7.7901985E1,3.7630733E1,3.0052275E1,6.071687E1,4.7433235E1,7.535246E1,3.1311145E2,6.267724E1,2.7374289E1,9.88881E1,2.2607805E1,1.5854196E2,5.5737774E1,2.1895195E1,1.06793465E2,2.0790059E2,1.7764534E2,2.1871841E1,2.2321102E1,3.5953114E1,2.047704E1,2.0324678E1,4.0768246E1,2.876917E2,2.0118078E1,2.3797794E2,1.2482559E2,6.342714E1,1.2055522E2,2.0030863E1,2.0813961E1,1.2564826E2,5.6892666E1,2.4082592E1,2.4172016E1,1.2458723E2,1.0650663E2,1.0149902E2,4.1893917E1,2.7352327E1,2.2277267E1,2.4713074E1,4.2634773E1,2.2430853E1,3.7970203E1,4.6725445E1,3.1176542E1],"tree_param":{"num_deleted":"0","num_feature":"384","num_nodes":"103","size_leaf_vector":"1"}},{"base_weights":[-6.0193813E-3,4.349069E-1,-4.7575197E-1,9.2401135E-1,1.8599011E-1,-7.529529E-1,5.0136317E-2,3.1489965E-2,1.0661864E0,3.754437E-1,-4.5557362E-1,-1.014573E0,-3.60852E-1,-3.7782302E-1,4.062487E-1,-3.9080852E-1,3.923061E-2,-7.001601E-2,1.1567017E0,1.660944E-2,6.876852E-1,1.6278997E-1,-7.523709E-1,-1.2326795E0,-6.14236E-1,-6.610251E-1,1.7782311E-1,-7.660931E-1,5.0892368E-2,-1.8629515E-1,6.6452634E-1,8.66663E-4,-5.017072E-2,2.8333176E-2,-3.5466094E-2,8.7158716E-1,1.3881981E0,-2.9712066E-1,4.4591597E-1,9.9071634E-1,3.3002907E-1,-1.2121665E-1,4.9841218E-2,8.395913E-3,-9.7925574E-1,-1.2924868E0,-5.913478E-3,-9.9755996E-1,-1.7466466E-1,-8.635633E-1,-1.8936997E-2,-1.7409538E-1,7.124904E-1,-1.0106637E0,-1.2831622E-1,-4.5019722E-1,4.7178715E-1,3.0320832E-1,-6.7665046E-1,-1.9803224E-2,7.8975695E-1,2.32127E-2,5.4284494E-2,3.547392E-2,7.380353E-2,-3.679371E-2,-1.6729117E-3,-1.09034795E-2,3.3465818E-2,5.4306824E-2,-2.3536826E-3,8.872128E-4,3.7701644E-2,-3.718121E-2,1.0399107E-2,-6.727721E-2,-2.5907857E-2,-4.832696E-2,-7.295727E-2,-6.005795E-2,-1.6289666E-2,-2.3874147E-2,2.4133591E-2,-5.476725E-2,-2.5189577E-2,2.8840298E-2,-2.4494378E-2,-2.2853173E-2,2.3312254E-2,6.359186E-2,1.4906119E-2,-7.275217E-2,-3.339651E-2,2.0643465E-2,-3.306016E-2,-5.178366E-2,8.876903E-3,-4.9761166E-3,3.7753757E-2,3.3563297E-2,-1.121211E-2,-6.5478347E-3,-6.372028E-2,1.6710216E-2,5.1754273E-2],"categories":[],"categories_nodes":[],"categories_segments":[],"categories_sizes":[],"default_left":[0,0,0,0,0,0,0,0,0,0,0,0,0,0,0,0,0,0,0,0,0,0,0,0,0,0,0,0,0,0,0,0,0,0,0,0,0,0,0,0,0,0,0,0,0,0,0,0,0,0,0,0,0,0,0,0,0,0,0,0,0,0,0,0,0,0,0,0,0,0,0,0,0,0,0,0,0,0,0,0,0,0,0,0,0,0,0,0,0,0,0,0,0,0,0,0,0,0,0,0,0,0,0,0,0],"id":5,"left_children":[1,3,5,7,9,11,13,15,17,19,21,23,25,27,29,31,-1,33,35,37,39,41,43,45,47,49,51,53,55,57,59,-1,-1,-1,-1,61,63,65,67,69,71,73,-1,-1,75,77,-1,79,81,83,85,87,89,91,93,95,97,99,101,-1,103,-1,-1,-1,-1,-1,-1,-1,-1,-1,-1,-1,-1,-1,-1,-1,-1,-1,-1,-1,-1,-1,-1,-1,-1,-1,-1,-1,-1,-1,-1,-1,-1,-1,-1,-1,-1,-1,-1,-1,-1,-1,-1,-1,-1],"loss_changes":[7.535018E2,2.282933E2,2.5681964E2,8.0248535E1,1.5148416E2,1.17964966E2,9.295734E1,2.8282894E1,5.620331E1,1.07733246E2,5.2292538E1,5.960742E1,7.501456E1,4.6162624E1,5.1063877E1,1.4276174E1,0E0,1.7175205E1,3.215442E1,6.0533974E1,5.540004E1,2.2152538E1,4.0306145E1,2.9608215E1,4.1243683E1,3.869339E1,3.1459766E1,2.256031E1,2.8183565E1,2.4645748E1,3.1130684E1,0E0,0E0,0E0,0E0,1.9485031E1,1.5490723E1,3.0019169E1,2.8292732E1,2.7565002E1,3.1411777E1,1.4553918E1,0E0,0E0,2.5375717E1,2.1605042E1,0E0,1.7538239E1,2.3263868E1,1.8315582E1,2.0595478E1,1.8556787E1,1.49879E1,1.5020042E1,1.223138E1,2.262333E1,1.1819937E1,1.0176712E1,1.6526451E1,0E0,2.2884521E1,0E0,0E0,0E0,0E0,0E0,0E0,0E0,0E0,0E0,0E0,0E0,0E0,0E0,0E0,0E0,0E0,0E0,0E0,0E0,0E0,0E0,0E0,0E0,0E0,0E0,0E0,0E0,0E0,0E0,0E0,0E0,0E0,0E0,0E0,0E0,0E0,0E0,0E0,0E0,0E0,0E0,0E0,0E0,0E0],"parents":[2147483647,0,0,1,1,2,2,3,3,4,4,5,5,6,6,7,7,8,8,9,9,10,10,11,11,12,12,13,13,14,14,15,15,17,17,18,18,19,19,20,20,21,21,22,22,23,23,24,24,25,25,26,26,27,27,28,28,29,29,30,30,35,35,36,36,37,37,38,38,39,39,40,40,41,41,44,44,45,45,47,47,48,48,49,49,50,50,51,51,52,52,53,53,54,54,55,55,56,56,57,57,58,58,60,60],"right_children":[2,4,6,8,10,12,14,16,18,20,22,24,26,28,30,32,-1,34,36,38,40,42,44,46,48,50,52,54,56,58,60,-1,-1,-1,-1,62,64,66,68,70,72,74,-1,-1,76,78,-1,80,82,84,86,88,90,92,94,96,98,100,102,-1,104,-1,-1,-1,-1,-1,-1,-1,-1,-1,-1,-1,-1,-1,-1,-1,-1,-1,-1,-1,-1,-1,-1,-1,-1,-1,-1,-1,-1,-1,-1,-1,-1,-1,-1,-1,-1,-1,-1,-1,-1,-1,-1,-1,-1],"split_conditions":[-4.8123553E-2,1.2900655E-2,6.213632E-2,-8.995922E-2,4.6615876E-2,7.630513E-2,1.6115515E-2,5.3686053E-2,-6.191912E-2,-3.394046E-2,2.0953598E-2,2.0248124E-2,-3.269409E-2,-3.5172433E-2,4.222349E-2,4.0765744E-2,3.923061E-2,-5.3275857E-2,-4.0419813E-2,-3.2116413E-2,1.1963918E-2,6.691925E-2,-7.142016E-2,6.013769E-2,3.2039195E-2,2.5119029E-2,-5.2133907E-2,-2.9021606E-2,5.7384226E-2,-6.4742155E-2,8.273705E-3,8.66663E-4,-5.017072E-2,2.8333176E-2,-3.5466094E-2,4.4331934E-2,1.6140623E-2,4.8684318E-2,-5.117275E-2,8.386958E-2,-2.7798833E-2,-5.060067E-2,4.9841218E-2,8.395913E-3,1.988782E-2,7.866872E-2,-5.913478E-3,-2.9172456E-2,6.5402605E-2,-7.5793006E-2,1.9413095E-2,1.373726E-2,6.079637E-2,-7.0251815E-2,5.013887E-3,-3.236844E-2,-5.3802326E-2,2.5045315E-2,3.9180398E-2,-1.9803224E-2,-3.818147E-2,2.32127E-2,5.4284494E-2,3.547392E-2,7.380353E-2,-3.679371E-2,-1.6729117E-3,-1.09034795E-2,3.3465818E-2,5.4306824E-2,-2.3536826E-3,8.872128E-4,3.7701644E-2,-3.718121E-2,1.0399107E-2,-6.727721E-2,-2.5907857E-2,-4.832696E-2,-7.295727E-2,-6.005795E-2,-1.6289666E-2,-2.3874147E-2,2.4133591E-2,-5.476725E-2,-2.5189577E-2,2.8840298E-2,-2.4494378E-2,-2.2853173E-2,2.3312254E-2,6.359186E-2,1.4906119E-2,-7.275217E-2,-3.339651E-2,2.0643465E-2,-3.306016E-2,-5.178366E-2,8.876903E-3,-4.9761166E-3,3.7753757E-2,3.3563297E-2,-1.121211E-2,-6.5478347E-3,-6.372028E-2,1.6710216E-2,5.1754273E-2],"split_indices":[240,158,177,94,325,350,216,282,184,348,171,281,184,252,255,325,0,2,170,196,276,134,326,66,66,216,206,172,188,339,131,0,0,0,0,134,153,188,172,257,369,184,0,0,128,64,0,369,188,94,276,72,148,80,11,196,114,271,314,0,348,0,0,0,0,0,0,0,0,0,0,0,0,0,0,0,0,0,0,0,0,0,0,0,0,0,0,0,0,0,0,0,0,0,0,0,0,0,0,0,0,0,0,0,0],"split_type":[0,0,0,0,0,0,0,0,0,0,0,0,0,0,0,0,0,0,0,0,0,0,0,0,0,0,0,0,0,0,0,0,0,0,0,0,0,0,0,0,0,0,0,0,0,0,0,0,0,0,0,0,0,0,0,0,0,0,0,0,0,0,0,0,0,0,0,0,0,0,0,0,0,0,0,0,0,0,0,0,0,0,0,0,0,0,0,0,0,0,0,0,0,0,0,0,0,0,0,0,0,0,0,0,0],"sum_hessian":[3.6360422E3,1.8755676E3,1.7604745E3,6.3166907E2,1.2438986E3,1.1525319E3,6.079427E2,8.696394E1,5.4470514E2,9.606374E2,2.8326117E2,6.903347E2,4.6219705E2,2.760898E2,3.3185287E2,5.602827E1,3.093567E1,4.0208603E1,5.0449652E2,4.4746024E2,5.131772E2,9.20113E1,1.9124986E2,4.4552844E2,2.4480629E2,2.9665878E2,1.6553827E2,1.4446594E2,1.3162387E2,1.0082275E2,2.3103014E2,3.420877E1,2.1819502E1,2.0202614E1,2.0005991E1,2.2820311E2,2.762934E2,2.5870834E2,1.8875188E2,2.7684488E2,2.363323E2,6.927599E1,2.2735304E1,3.7876263E1,1.533736E2,4.2268436E2,2.2844093E1,1.3009169E2,1.1471461E2,2.2525891E2,7.139988E1,1.0023674E2,6.530153E1,1.04E2,4.046594E1,6.0055786E1,7.156808E1,5.0646194E1,5.0176556E1,2.4169924E1,2.0686021E2,7.9714226E1,1.4848889E2,3.2710888E1,2.435825E2,9.643782E1,1.6227054E2,4.75245E1,1.4122737E2,2.5349095E2,2.335394E1,1.3669577E2,9.963653E1,2.3529844E1,4.5746155E1,8.440537E1,6.896822E1,1.4530307E2,2.773813E2,9.9229225E1,3.086246E1,7.872267E1,3.5991932E1,1.357548E2,8.9504105E1,3.1424171E1,3.9975708E1,6.97155E1,3.052124E1,2.6908697E1,3.839283E1,4.3871696E1,6.01283E1,2.0188385E1,2.0277555E1,3.0737598E1,2.9318188E1,2.3938925E1,4.7629154E1,2.96698E1,2.0976393E1,2.6867842E1,2.3308714E1,7.3233864E1,1.3362634E2],"tree_param":{"num_deleted":"0","num_feature":"384","num_nodes":"105","size_leaf_vector":"1"}},{"base_weights":[9.770461E-3,3.7348908E-1,-5.023388E-1,-3.179624E-2,6.636107E-1,-7.8532624E-1,5.352895E-2,-1.0472585E0,8.803943E-2,3.8504806E-1,1.0297341E0,-1.0658774E0,-3.415798E-1,-3.311344E-1,4.9718755E-1,-2.650738E-3,-1.3844867E0,5.295728E-1,-1.8671475E-1,3.544608E-2,6.833612E-1,1.2006832E0,6.3967204E-1,-4.56063E-1,-1.2367496E0,-6.964007E-1,3.843825E-2,-5.467632E-1,6.531249E-1,1.7378926E-1,9.6432984E-1,-7.830987E-2,-4.498175E-2,6.644155E-2,7.9961205E-1,-7.771941E-1,-3.0822724E-2,2.3010664E-1,-5.468305E-1,9.9643767E-1,3.9935875E-1,1.2615087E0,1.1797341E-2,1.03768066E-1,9.1272205E-1,1.8364249E-2,-8.0654454E-1,-1.3845403E0,-9.334215E-1,-8.369139E-1,-4.1215154E-3,2.7401096E-1,-4.449693E-2,1.9651122E-1,-8.023218E-1,5.918595E-3,5.5351894E-2,-3.200549E-1,5.642779E-1,5.6261406E-3,1.218494E0,2.1523675E-2,-2.419343E-2,4.833925E-2,5.1522357E-3,-5.5138476E-2,-1.1646106E-2,1.4045449E-2,-1.9239495E-2,2.790807E-2,-1.055474E-2,1.2125598E-2,-4.3540403E-2,5.7086796E-2,1.7617134E-2,3.5623115E-2,-2.331671E-3,2.0254513E-2,6.579933E-2,2.8109362E-2,-2.3263656E-2,3.1608086E-2,6.381909E-2,-5.7275858E-2,-9.345642E-3,-7.320266E-2,-5.175336E-2,-7.8812055E-3,-5.25255E-2,-5.0536018E-2,-1.1817216E-2,3.7754294E-2,-4.8905504E-3,3.0218462E-2,-2.2983264E-2,-5.804192E-2,-2.2586359E-2,2.563182E-2,-3.648149E-2,4.6457287E-2,2.9770462E-3,3.6916826E-2,7.601925E-2],"categories":[],"categories_nodes":[],"categories_segments":[],"categories_sizes":[],"default_left":[0,0,0,0,0,0,0,0,0,0,0,0,0,0,0,0,0,0,0,0,0,0,0,0,0,0,0,0,0,0,0,0,0,0,0,0,0,0,0,0,0,0,0,0,0,0,0,0,0,0,0,0,0,0,0,0,0,0,0,0,0,0,0,0,0,0,0,0,0,0,0,0,0,0,0,0,0,0,0,0,0,0,0,0,0,0,0,0,0,0,0,0,0,0,0,0,0,0,0,0,0,0,0],"id":6,"left_children":[1,3,5,7,9,11,13,15,17,19,21,23,25,27,29,-1,31,33,35,37,39,41,43,45,47,49,51,53,55,57,59,-1,-1,61,63,65,67,69,71,73,75,77,-1,79,81,-1,83,85,87,89,-1,91,-1,93,95,-1,-1,97,99,-1,101,-1,-1,-1,-1,-1,-1,-1,-1,-1,-1,-1,-1,-1,-1,-1,-1,-1,-1,-1,-1,-1,-1,-1,-1,-1,-1,-1,-1,-1,-1,-1,-1,-1,-1,-1,-1,-1,-1,-1,-1,-1,-1],"loss_changes":[6.685383E2,2.4678403E2,2.3451126E2,1.06752525E2,1.2434967E2,1.2260809E2,8.61382E1,3.0972893E1,9.531829E1,7.258636E1,3.443347E1,6.24458E1,5.1815536E1,5.775107E1,3.523583E1,0E0,4.679245E0,3.7632988E1,4.4581245E1,3.6579544E1,3.2999924E1,2.1174011E1,2.3757286E1,3.8946243E1,1.9856262E1,1.7071098E1,4.101022E1,4.2397552E1,1.1775753E1,2.712016E1,2.0570526E1,0E0,0E0,2.2660868E1,2.205539E1,1.7670502E1,4.252398E1,3.5106503E1,2.0893557E1,1.6255508E1,2.7769274E1,1.5515381E1,0E0,1.4908158E1,1.0197464E1,0E0,1.9583904E1,7.241577E0,1.4152374E1,1.6625938E1,0E0,2.6805044E1,0E0,1.5719641E1,2.0299889E1,0E0,0E0,2.1629543E1,1.4378366E1,0E0,9.5411E0,0E0,0E0,0E0,0E0,0E0,0E0,0E0,0E0,0E0,0E0,0E0,0E0,0E0,0E0,0E0,0E0,0E0,0E0,0E0,0E0,0E0,0E0,0E0,0E0,0E0,0E0,0E0,0E0,0E0,0E0,0E0,0E0,0E0,0E0,0E0,0E0,0E0,0E0,0E0,0E0,0E0,0E0],"parents":[2147483647,0,0,1,1,2,2,3,3,4,4,5,5,6,6,7,7,8,8,9,9,10,10,11,11,12,12,13,13,14,14,16,16,17,17,18,18,19,19,20,20,21,21,22,22,23,23,24,24,25,25,26,26,27,27,28,28,29,29,30,30,33,33,34,34,35,35,36,36,37,37,38,38,39,39,40,40,41,41,43,43,44,44,46,46,47,47,48,48,49,49,51,51,53,53,54,54,57,57,58,58,60,60],"right_children":[2,4,6,8,10,12,14,16,18,20,22,24,26,28,30,-1,32,34,36,38,40,42,44,46,48,50,52,54,56,58,60,-1,-1,62,64,66,68,70,72,74,76,78,-1,80,82,-1,84,86,88,90,-1,92,-1,94,96,-1,-1,98,100,-1,102,-1,-1,-1,-1,-1,-1,-1,-1,-1,-1,-1,-1,-1,-1,-1,-1,-1,-1,-1,-1,-1,-1,-1,-1,-1,-1,-1,-1,-1,-1,-1,-1,-1,-1,-1,-1,-1,-1,-1,-1,-1,-1],"split_conditions":[-4.2619925E-2,-3.883079E-2,6.1660014E-2,-4.900338E-3,2.8082732E-2,7.630513E-2,5.92201E-2,2.99658E-2,-4.625634E-2,-3.350897E-2,-6.305579E-2,1.9012962E-2,-7.860937E-2,9.211775E-2,-4.065259E-2,-2.650738E-3,4.7946E-2,2.9491283E-2,-5.7705507E-2,4.2367656E-2,2.2104332E-2,6.969804E-2,5.4396667E-2,1.590109E-2,-6.757571E-2,7.1732916E-2,9.2735186E-2,1.9572245E-2,4.2878248E-2,-3.182941E-2,-6.3928254E-2,-7.830987E-2,-4.498175E-2,-2.2980954E-2,3.944748E-2,5.574343E-2,2.9454658E-2,-3.127618E-2,-5.154786E-2,-9.6569825E-3,-5.5131167E-2,-7.9416305E-2,1.1797341E-2,-3.8234796E-2,-2.5961047E-2,1.8364249E-2,-1.38909435E-2,5.9709847E-2,-6.997611E-2,6.58771E-2,-4.1215154E-3,-5.5474658E-2,-4.449693E-2,-3.8979255E-2,-2.3415966E-2,5.918595E-3,5.5351894E-2,1.2323882E-2,-5.3106572E-2,5.6261406E-3,4.0368408E-2,2.1523675E-2,-2.419343E-2,4.833925E-2,5.1522357E-3,-5.5138476E-2,-1.1646106E-2,1.4045449E-2,-1.9239495E-2,2.790807E-2,-1.055474E-2,1.2125598E-2,-4.3540403E-2,5.7086796E-2,1.7617134E-2,3.5623115E-2,-2.331671E-3,2.0254513E-2,6.579933E-2,2.8109362E-2,-2.3263656E-2,3.1608086E-2,6.381909E-2,-5.7275858E-2,-9.345642E-3,-7.320266E-2,-5.175336E-2,-7.8812055E-3,-5.25255E-2,-5.0536018E-2,-1.1817216E-2,3.7754294E-2,-4.8905504E-3,3.0218462E-2,-2.2983264E-2,-5.804192E-2,-2.2586359E-2,2.563182E-2,-3.648149E-2,4.6457287E-2,2.9770462E-3,3.6916826E-2,7.601925E-2],"split_indices":[240,172,177,128,216,350,188,330,169,348,80,330,94,65,114,0,15,282,184,130,325,250,220,276,57,175,64,158,131,149,227,0,0,180,158,188,158,169,99,18,326,360,0,99,149,0,289,255,228,255,0,378,0,14,289,0,0,171,291,0,42,0,0,0,0,0,0,0,0,0,0,0,0,0,0,0,0,0,0,0,0,0,0,0,0,0,0,0,0,0,0,0,0,0,0,0,0,0,0,0,0,0,0],"split_type":[0,0,0,0,0,0,0,0,0,0,0,0,0,0,0,0,0,0,0,0,0,0,0,0,0,0,0,0,0,0,0,0,0,0,0,0,0,0,0,0,0,0,0,0,0,0,0,0,0,0,0,0,0,0,0,0,0,0,0,0,0,0,0,0,0,0,0,0,0,0,0,0,0,0,0,0,0,0,0,0,0,0,0,0,0,0,0,0,0,0,0,0,0,0,0,0,0,0,0,0,0,0,0],"sum_hessian":[3.5871968E3,2.0976445E3,1.4895525E3,8.755022E2,1.2221422E3,9.867791E2,5.0277335E2,9.159619E1,7.83906E2,6.9523157E2,5.2691064E2,6.036988E2,3.8308035E2,2.6942694E2,2.3334642E2,2.3492086E1,6.81041E1,3.0033557E2,4.8357043E2,3.206137E2,3.7461786E2,3.6490762E2,1.62003E2,1.3293716E2,4.707616E2,1.9767741E2,1.8540294E2,2.2137354E2,4.80534E1,1.3869865E2,9.464777E1,4.7916058E1,2.0188042E1,1.1107768E2,1.892579E2,1.0016928E2,3.8340115E2,2.4073764E2,7.987606E1,1.7699493E2,1.9762294E2,3.4297577E2,2.1931862E1,5.514744E1,1.0685557E2,3.967801E1,9.3259155E1,3.14139E2,1.566226E2,1.6056696E2,3.7110447E1,1.4844128E2,3.696166E1,5.669912E1,1.6467441E2,2.2640959E1,2.5412441E1,6.1323837E1,7.737481E1,2.2082634E1,7.256514E1,6.698479E1,4.409289E1,1.5231506E2,3.694284E1,6.203482E1,3.8134457E1,2.0397282E2,1.7942833E2,1.3792133E2,1.0281632E2,2.3317213E1,5.6558846E1,1.4378627E2,3.320867E1,1.15758545E2,8.186439E1,2.1016829E1,3.2195895E2,3.054913E1,2.4598312E1,6.186532E1,4.4990246E1,5.973314E1,3.3526012E1,2.53315E2,6.0824E1,2.0846361E1,1.3577625E2,1.23998505E2,3.656846E1,6.4263885E1,8.417739E1,3.5014313E1,2.1684807E1,8.027475E1,8.4399666E1,2.0135492E1,4.1188347E1,4.442192E1,3.2952885E1,2.9342155E1,4.322298E1],"tree_param":{"num_deleted":"0","num_feature":"384","num_nodes":"103","size_leaf_vector":"1"}},{"base_weights":[7.4472264E-3,-3.3948594E-1,4.887165E-1,-9.250829E-1,-1.1801503E-1,8.314393E-1,1.3784584E-1,-3.701868E-1,-1.1932547E0,-7.535076E-1,7.8002654E-2,9.454864E-1,-2.1113028E-1,5.785515E-1,-1.20923534E-1,1.6230705E-1,-8.037379E-1,-6.5444666E-1,-1.3843932E0,-4.877522E-1,-1.1042852E0,3.3938015E-1,-2.9606324E-1,1.1605606E0,5.8400255E-1,-5.4644372E-2,2.0643556E-1,9.0587986E-1,1.15616694E-1,-3.5215244E-1,3.457812E-1,-3.7890967E-2,5.104118E-1,-1.1013952E0,-3.2836738E-1,-9.0821767E-1,1.189095E-2,-1.4356266E0,-3.4560505E-2,-3.0705255E-1,-6.076928E-2,-1.3035711E0,-5.674127E-1,-4.384063E-1,4.7596896E-1,-2.1620736E-2,-6.6254276E-1,1.2058754E0,1.4263245E-2,3.2546935E-3,8.332478E-1,-3.371164E-2,3.9883267E-2,5.4479855E-1,1.2479376E0,-2.7699828E-1,7.2701883E-1,-7.646578E-1,-5.5030055E-2,8.160141E-1,5.9853308E-2,5.3706385E-2,-4.9128337E-3,-7.6971225E-2,-4.233594E-2,-4.7822487E-2,1.5879229E-2,-6.1552424E-2,-2.4183271E-2,-5.270024E-2,-7.477348E-2,2.1716932E-2,-2.4838531E-2,-7.222092E-2,-4.1041125E-2,-5.5420097E-2,2.861756E-3,-3.788575E-2,1.3641091E-2,3.4920823E-2,-5.9145684E-3,-2.0285573E-2,1.5926784E-2,-1.1355537E-2,-5.2647162E-2,6.286609E-2,2.2627622E-2,-2.5767839E-2,2.1675942E-2,5.010105E-2,2.6248957E-4,-1.606633E-4,4.5926668E-2,7.184678E-2,3.194265E-2,1.7789083E-2,-3.1420078E-2,4.84189E-3,6.0982984E-2,-2.5702745E-2,-6.276971E-2,-2.4306072E-2,1.7744442E-2,1.2949894E-2,5.617364E-2,-3.172163E-2,1.3958794E-2],"categories":[],"categories_nodes":[],"categories_segments":[],"categories_sizes":[],"default_left":[0,0,0,0,0,0,0,0,0,0,0,0,0,0,0,0,0,0,0,0,0,0,0,0,0,0,0,0,0,0,0,0,0,0,0,0,0,0,0,0,0,0,0,0,0,0,0,0,0,0,0,0,0,0,0,0,0,0,0,0,0,0,0,0,0,0,0,0,0,0,0,0,0,0,0,0,0,0,0,0,0,0,0,0,0,0,0,0,0,0,0,0,0,0,0,0,0,0,0,0,0,0,0,0,0,0,0],"id":7,"left_children":[1,3,5,7,9,11,13,15,17,19,21,23,25,27,29,31,33,35,37,39,41,43,45,47,49,-1,51,53,55,57,59,-1,61,63,65,67,-1,69,-1,71,-1,73,75,77,79,81,83,85,-1,87,89,-1,-1,91,93,95,97,99,101,103,105,-1,-1,-1,-1,-1,-1,-1,-1,-1,-1,-1,-1,-1,-1,-1,-1,-1,-1,-1,-1,-1,-1,-1,-1,-1,-1,-1,-1,-1,-1,-1,-1,-1,-1,-1,-1,-1,-1,-1,-1,-1,-1,-1,-1,-1,-1],"loss_changes":[6.002345E2,2.7082068E2,1.8097125E2,8.4841095E1,1.8901625E2,9.075458E1,8.50649E1,4.3574295E1,3.883966E1,3.2805115E1,1.1353803E2,5.270874E1,2.8176382E1,4.1702156E1,5.0885853E1,2.7703684E1,1.433918E1,2.3527782E1,9.092834E0,2.6619804E1,1.5671478E1,7.2816505E1,4.8038483E1,1.66922E1,3.7366463E1,0E0,2.7799572E1,1.9263718E1,2.7908089E1,3.857228E1,2.097314E1,0E0,2.154125E1,5.776413E0,1.7112295E1,1.0419075E1,0E0,4.4414673E0,0E0,2.3535515E1,0E0,6.3680725E0,1.4693865E1,2.351054E1,7.699675E1,3.5956596E1,3.453231E1,1.5245728E1,0E0,1.7746737E1,2.5237404E1,0E0,0E0,1.645478E1,8.5383E0,1.6013739E1,1.3979948E1,1.5567818E1,3.2726032E1,9.820606E0,1.5146995E1,0E0,0E0,0E0,0E0,0E0,0E0,0E0,0E0,0E0,0E0,0E0,0E0,0E0,0E0,0E0,0E0,0E0,0E0,0E0,0E0,0E0,0E0,0E0,0E0,0E0,0E0,0E0,0E0,0E0,0E0,0E0,0E0,0E0,0E0,0E0,0E0,0E0,0E0,0E0,0E0,0E0,0E0,0E0,0E0,0E0,0E0],"parents":[2147483647,0,0,1,1,2,2,3,3,4,4,5,5,6,6,7,7,8,8,9,9,10,10,11,11,12,12,13,13,14,14,15,15,16,16,17,17,18,18,19,19,20,20,21,21,22,22,23,23,24,24,26,26,27,27,28,28,29,29,30,30,32,32,33,33,34,34,35,35,37,37,39,39,41,41,42,42,43,43,44,44,45,45,46,46,47,47,49,49,50,50,53,53,54,54,55,55,56,56,57,57,58,58,59,59,60,60],"right_children":[2,4,6,8,10,12,14,16,18,20,22,24,26,28,30,32,34,36,38,40,42,44,46,48,50,-1,52,54,56,58,60,-1,62,64,66,68,-1,70,-1,72,-1,74,76,78,80,82,84,86,-1,88,90,-1,-1,92,94,96,98,100,102,104,106,-1,-1,-1,-1,-1,-1,-1,-1,-1,-1,-1,-1,-1,-1,-1,-1,-1,-1,-1,-1,-1,-1,-1,-1,-1,-1,-1,-1,-1,-1,-1,-1,-1,-1,-1,-1,-1,-1,-1,-1,-1,-1,-1,-1,-1,-1],"split_conditions":[4.4637498E-2,1.6784582E-2,2.5150228E-2,4.0881876E-2,-9.380721E-2,5.3082235E-2,-4.978637E-2,7.56571E-2,3.485165E-2,6.755921E-2,3.6761932E-2,-4.061413E-2,-8.95952E-2,2.6383506E-2,6.490073E-2,-2.0747262E-3,-6.0524642E-2,-6.306582E-2,7.288978E-2,-1.5514342E-2,-4.1854225E-2,-5.7705507E-2,6.0724057E-2,-2.7515888E-2,3.0840298E-2,-5.4644372E-2,3.7381012E-2,6.515458E-2,-3.4871995E-2,-3.605178E-2,4.8825458E-2,-3.7890967E-2,7.344642E-3,6.1369147E-2,2.9622357E-2,5.8544774E-2,1.189095E-2,-4.8049707E-3,-3.4560505E-2,-5.0518677E-2,-6.076928E-2,-5.1660016E-2,-2.2423426E-2,6.565569E-2,-2.3696437E-2,-3.7905294E-2,-9.152477E-2,-2.2295946E-2,1.4263245E-2,5.2159004E-2,4.6096046E-2,-3.371164E-2,3.9883267E-2,-4.2986367E-2,3.1378824E-2,3.3487238E-2,-5.2083068E-2,6.225426E-2,1.854907E-2,-3.6006432E-2,3.0323644E-3,5.3706385E-2,-4.9128337E-3,-7.6971225E-2,-4.233594E-2,-4.7822487E-2,1.5879229E-2,-6.1552424E-2,-2.4183271E-2,-5.270024E-2,-7.477348E-2,2.1716932E-2,-2.4838531E-2,-7.222092E-2,-4.1041125E-2,-5.5420097E-2,2.861756E-3,-3.788575E-2,1.3641091E-2,3.4920823E-2,-5.9145684E-3,-2.0285573E-2,1.5926784E-2,-1.1355537E-2,-5.2647162E-2,6.286609E-2,2.2627622E-2,-2.5767839E-2,2.1675942E-2,5.010105E-2,2.6248957E-4,-1.606633E-4,4.5926668E-2,7.184678E-2,3.194265E-2,1.7789083E-2,-3.1420078E-2,4.84189E-3,6.0982984E-2,-2.5702745E-2,-6.276971E-2,-2.4306072E-2,1.7744442E-2,1.2949894E-2,5.617364E-2,-3.172163E-2,1.3958794E-2],"split_indices":[66,128,158,314,94,325,169,64,91,353,130,169,94,130,188,219,243,94,255,240,356,184,299,50,54,0,0,220,227,253,97,0,341,146,295,255,0,74,0,99,0,227,149,255,169,184,156,376,0,188,130,0,0,288,325,299,268,297,216,201,216,0,0,0,0,0,0,0,0,0,0,0,0,0,0,0,0,0,0,0,0,0,0,0,0,0,0,0,0,0,0,0,0,0,0,0,0,0,0,0,0,0,0,0,0,0,0],"split_type":[0,0,0,0,0,0,0,0,0,0,0,0,0,0,0,0,0,0,0,0,0,0,0,0,0,0,0,0,0,0,0,0,0,0,0,0,0,0,0,0,0,0,0,0,0,0,0,0,0,0,0,0,0,0,0,0,0,0,0,0,0,0,0,0,0,0,0,0,0,0,0,0,0,0,0,0,0,0,0,0,0,0,0,0,0,0,0,0,0,0,0,0,0,0,0,0,0,0,0,0,0,0,0,0,0,0,0],"sum_hessian":[3.592908E3,2.0880137E3,1.5048943E3,5.721088E2,1.5159049E3,7.605935E2,7.443007E2,1.8717993E2,3.849289E2,3.5668433E2,1.1592206E3,6.856799E2,7.491365E1,2.748954E2,4.6940536E2,8.428522E1,1.02894714E2,1.0195311E2,2.8297577E2,2.0429628E2,1.5238803E2,6.8245197E2,4.7676862E2,4.285139E2,2.5716595E2,2.3555391E1,5.1358257E1,1.6047273E2,1.1442266E2,3.1405316E2,1.553522E2,2.2811588E1,6.1473625E1,6.2464878E1,4.042984E1,7.936335E1,2.2589762E1,2.6250302E2,2.0472746E1,1.647936E2,3.9502678E1,1.100935E2,4.2294533E1,1.0161419E2,5.8083777E2,2.7322205E2,2.0354657E2,4.0706223E2,2.145166E1,7.7530624E1,1.7963533E2,2.0573114E1,3.0785143E1,7.932683E1,8.1145905E1,7.001142E1,4.4411243E1,1.3083575E2,1.8321739E2,5.8042473E1,9.730973E1,3.151833E1,2.9955296E1,2.111082E1,4.1354057E1,2.0254742E1,2.0175097E1,4.4003395E1,3.535995E1,3.8106754E1,2.2439627E2,3.3314785E1,1.3147882E2,8.36853E1,2.6408201E1,2.2250008E1,2.0044525E1,7.008423E1,3.1529955E1,4.2250693E2,1.5833084E2,1.282334E2,1.4498865E2,9.6971466E1,1.0657511E2,3.8041373E2,2.664851E1,3.50663E1,4.2464325E1,1.4904492E2,3.0590406E1,3.2566128E1,4.67607E1,6.089202E1,2.0253887E1,2.4993174E1,4.5018246E1,2.001054E1,2.4400702E1,8.796332E1,4.287244E1,8.921184E1,9.4005554E1,2.1298616E1,3.6743855E1,2.2905996E1,7.440373E1],"tree_param":{"num_deleted":"0","num_feature":"384","num_nodes":"107","size_leaf_vector":"1"}},{"base_weights":[-6.633548E-3,-4.016668E-1,4.290098E-1,-9.6620995E-1,-1.7782764E-1,-1.1484497E-1,6.7874944E-1,-1.1592342E0,-1.908638E-1,-5.335403E-1,1.5047611E-1,4.906275E-1,-3.497249E-1,9.4073623E-1,3.2108366E-1,-1.3155465E0,-7.281615E-1,-5.116274E-2,9.465254E-2,-2.2748372E-1,-8.988879E-1,6.3580865E-1,-6.0292136E-2,8.2605714E-1,-2.6297322E-1,-7.2866976E-1,-3.0091211E-2,4.6857987E-2,1.0328006E0,4.233556E-1,-5.4390955E-1,-8.0853975E-1,-1.4141964E0,-2.318499E-3,-9.612032E-1,-4.0161982E-2,4.0984392E-1,-3.6863947E-1,5.634981E-1,-1.1982616E0,-6.0290235E-1,8.506941E-1,1.0298481E-5,-4.2642447E-1,1.7032258E-1,1.0182062E0,6.847435E-3,-4.295073E-2,1.9122211E-2,-8.6524534E-1,4.7079494E-4,4.8236248E-1,-2.8894347E-1,5.8060294E-1,-4.8843287E-2,4.0430445E-3,1.0828519E0,7.6828435E-2,6.661349E-1,-5.368471E-2,-6.93405E-3,-6.204737E-2,-5.1668566E-3,-5.359454E-2,-7.32195E-2,-2.3784865E-2,-6.1371367E-2,-8.194258E-3,3.907999E-2,-4.4391535E-2,-8.816411E-3,6.0067475E-3,5.8358144E-2,-2.8397297E-2,-7.046502E-2,-4.1922253E-2,-3.6476698E-4,1.1590039E-2,5.2454967E-2,-3.5520803E-2,2.4711449E-2,-2.7457923E-2,2.5840113E-2,-7.1063335E-3,2.3143517E-2,7.202278E-2,3.6626384E-2,-3.555934E-2,-7.675096E-2,-1.0807719E-2,4.587628E-2,-4.2687625E-2,4.022527E-3,4.716302E-3,5.1335234E-2,4.251986E-2,6.288212E-2,1.6705392E-2,-2.725235E-2,5.175025E-2,1.8862953E-2],"categories":[],"categories_nodes":[],"categories_segments":[],"categories_sizes":[],"default_left":[0,0,0,0,0,0,0,0,0,0,0,0,0,0,0,0,0,0,0,0,0,0,0,0,0,0,0,0,0,0,0,0,0,0,0,0,0,0,0,0,0,0,0,0,0,0,0,0,0,0,0,0,0,0,0,0,0,0,0,0,0,0,0,0,0,0,0,0,0,0,0,0,0,0,0,0,0,0,0,0,0,0,0,0,0,0,0,0,0,0,0,0,0,0,0,0,0,0,0,0,0],"id":8,"left_children":[1,3,5,7,9,11,13,15,17,19,21,23,25,27,29,31,33,-1,35,37,39,41,43,45,47,49,51,53,55,57,59,61,63,-1,65,-1,67,69,71,73,75,77,79,81,83,85,-1,-1,-1,87,-1,89,91,93,-1,-1,95,97,99,-1,-1,-1,-1,-1,-1,-1,-1,-1,-1,-1,-1,-1,-1,-1,-1,-1,-1,-1,-1,-1,-1,-1,-1,-1,-1,-1,-1,-1,-1,-1,-1,-1,-1,-1,-1,-1,-1,-1,-1,-1,-1],"loss_changes":[6.1498987E2,2.3665646E2,2.308999E2,7.9380554E1,1.5694754E2,7.634965E1,1.0884247E2,2.7724243E1,2.5578075E1,7.190997E1,7.1573425E1,3.816816E1,4.6795513E1,5.5236816E1,4.3930347E1,1.4419006E1,1.8309273E1,0E0,2.3181671E1,3.954058E1,2.5298065E1,2.894088E1,4.131844E1,1.3648994E1,1.84096E1,1.7831528E1,2.8090654E1,3.5415985E1,2.8929749E1,3.716069E1,1.1158103E1,1.6037987E1,2.8826904E0,0E0,1.0536964E1,0E0,1.3017046E1,2.9751366E1,1.424353E1,1.8484634E1,2.0991749E1,1.919722E1,1.948943E1,2.2170918E1,2.752657E1,8.748543E0,0E0,0E0,0E0,1.4304855E1,0E0,2.1807789E1,2.9408012E1,9.133166E0,0E0,0E0,2.243628E1,2.951785E1,2.7310547E1,0E0,0E0,0E0,0E0,0E0,0E0,0E0,0E0,0E0,0E0,0E0,0E0,0E0,0E0,0E0,0E0,0E0,0E0,0E0,0E0,0E0,0E0,0E0,0E0,0E0,0E0,0E0,0E0,0E0,0E0,0E0,0E0,0E0,0E0,0E0,0E0,0E0,0E0,0E0,0E0,0E0,0E0],"parents":[2147483647,0,0,1,1,2,2,3,3,4,4,5,5,6,6,7,7,8,8,9,9,10,10,11,11,12,12,13,13,14,14,15,15,16,16,18,18,19,19,20,20,21,21,22,22,23,23,24,24,25,25,26,26,27,27,28,28,29,29,30,30,31,31,32,32,34,34,36,36,37,37,38,38,39,39,40,40,41,41,42,42,43,43,44,44,45,45,49,49,51,51,52,52,53,53,56,56,57,57,58,58],"right_children":[2,4,6,8,10,12,14,16,18,20,22,24,26,28,30,32,34,-1,36,38,40,42,44,46,48,50,52,54,56,58,60,62,64,-1,66,-1,68,70,72,74,76,78,80,82,84,86,-1,-1,-1,88,-1,90,92,94,-1,-1,96,98,100,-1,-1,-1,-1,-1,-1,-1,-1,-1,-1,-1,-1,-1,-1,-1,-1,-1,-1,-1,-1,-1,-1,-1,-1,-1,-1,-1,-1,-1,-1,-1,-1,-1,-1,-1,-1,-1,-1,-1,-1,-1,-1],"split_conditions":[4.0853355E-2,1.6784582E-2,-4.6058413E-2,6.397691E-2,-7.557458E-2,-5.274114E-2,2.7849259E-2,7.820024E-2,-4.5705736E-2,5.945921E-2,1.2900655E-2,5.072093E-2,-8.054882E-2,-9.6194305E-2,-9.3974555E-3,3.0609313E-2,-3.4104697E-2,-5.116274E-2,1.9282589E-2,7.91857E-2,-4.128362E-2,-4.4982344E-2,-4.519185E-2,2.779442E-2,4.8481766E-2,5.04246E-3,2.159507E-2,3.251281E-2,-7.264132E-2,-6.222516E-2,4.8140023E-2,-4.0019926E-2,6.8758796E-3,-2.318499E-3,-3.9404236E-2,-4.0161982E-2,-7.2711475E-2,-5.5287037E-2,-3.5940375E-2,9.63812E-3,4.508066E-2,-6.531205E-2,-4.374267E-2,3.735158E-2,5.8586758E-2,4.6498235E-2,6.847435E-3,-4.295073E-2,1.9122211E-2,-3.381272E-2,4.7079494E-4,3.4169823E-2,5.6986846E-2,6.298434E-2,-4.8843287E-2,4.0430445E-3,-4.9251497E-2,7.500255E-2,-5.5676475E-2,-5.368471E-2,-6.93405E-3,-6.204737E-2,-5.1668566E-3,-5.359454E-2,-7.32195E-2,-2.3784865E-2,-6.1371367E-2,-8.194258E-3,3.907999E-2,-4.4391535E-2,-8.816411E-3,6.0067475E-3,5.8358144E-2,-2.8397297E-2,-7.046502E-2,-4.1922253E-2,-3.6476698E-4,1.1590039E-2,5.2454967E-2,-3.5520803E-2,2.4711449E-2,-2.7457923E-2,2.5840113E-2,-7.1063335E-3,2.3143517E-2,7.202278E-2,3.6626384E-2,-3.555934E-2,-7.675096E-2,-1.0807719E-2,4.587628E-2,-4.2687625E-2,4.022527E-3,4.716302E-3,5.1335234E-2,4.251986E-2,6.288212E-2,1.6705392E-2,-2.725235E-2,5.175025E-2,1.8862953E-2],"split_indices":[66,128,172,365,94,169,158,350,142,299,158,314,94,94,169,91,180,0,66,188,196,68,348,276,365,289,158,325,196,92,188,252,126,0,31,0,227,252,369,205,191,92,172,216,90,53,0,0,0,232,0,54,44,220,0,0,92,257,376,0,0,0,0,0,0,0,0,0,0,0,0,0,0,0,0,0,0,0,0,0,0,0,0,0,0,0,0,0,0,0,0,0,0,0,0,0,0,0,0,0,0],"split_type":[0,0,0,0,0,0,0,0,0,0,0,0,0,0,0,0,0,0,0,0,0,0,0,0,0,0,0,0,0,0,0,0,0,0,0,0,0,0,0,0,0,0,0,0,0,0,0,0,0,0,0,0,0,0,0,0,0,0,0,0,0,0,0,0,0,0,0,0,0,0,0,0,0,0,0,0,0,0,0,0,0,0,0,0,0,0,0,0,0,0,0,0,0,0,0,0,0,0,0,0,0],"sum_hessian":[3.5715764E3,1.8731328E3,1.6984437E3,5.3088214E2,1.3422506E3,5.346606E2,1.1637832E3,4.2466553E2,1.06216576E2,6.4393286E2,6.9831775E2,1.4913422E2,3.8552637E2,6.707991E2,4.929841E2,3.101496E2,1.1451594E2,2.6468054E1,7.974852E1,3.512819E2,2.92651E2,2.108289E2,4.8748886E2,1.0313321E2,4.6001003E1,1.7581155E2,2.0971481E2,6.277808E1,6.08021E2,4.4131592E2,5.1668156E1,5.201531E1,2.581343E2,2.947685E1,8.503909E1,2.0318466E1,5.9430058E1,2.9853955E2,5.274234E1,1.4397722E2,1.4867378E2,1.5732022E2,5.3508675E1,1.8806343E2,2.994254E2,8.027264E1,2.286057E1,2.3743238E1,2.2257765E1,1.4821376E2,2.75978E1,7.009105E1,1.3962376E2,4.154853E1,2.1229551E1,3.0502445E1,5.7751855E2,1.8235327E2,2.5896265E2,2.167771E1,2.9990446E1,3.1773258E1,2.0242048E1,3.5869522E1,2.2226477E2,3.1103428E1,5.393566E1,2.35872E1,3.5842857E1,7.971441E1,2.1882515E2,3.1099928E1,2.1642412E1,3.7039986E1,1.06937225E2,1.06248375E2,4.2425404E1,3.8717003E1,1.18603226E2,2.1773043E1,3.1735632E1,1.6677962E2,2.1283812E1,1.4503651E2,1.5438892E2,3.0762157E1,4.951048E1,1.22173706E2,2.6040045E1,2.709764E1,4.2993412E1,5.469028E1,8.493348E1,2.0458748E1,2.108978E1,2.503895E2,3.2712903E2,1.29316E2,5.3037277E1,1.12599594E2,1.4636307E2],"tree_param":{"num_deleted":"0","num_feature":"384","num_nodes":"101","size_leaf_vector":"1"}},{"base_weights":[-5.8737793E-3,3.3919278E-1,-4.3859762E-1,8.2820964E-1,1.4494348E-1,-6.1119443E-1,2.1432005E-1,3.1524745E-1,1.0423537E0,-1.5505454E-1,4.510083E-1,-3.2824033E-1,-9.433217E-1,4.4788858E-1,-3.4366554E-1,7.73281E-1,-1.7664114E-1,6.0993093E-1,1.2178769E0,-4.695244E-1,1.3681765E-1,1.1928442E-1,7.849222E-1,-6.944739E-1,7.7263317E-3,-1.1464648E0,-5.307392E-1,-3.7304085E-1,6.475391E-1,-5.6311965E-1,1.6036613E-2,1.1501619E0,1.2349727E-2,-6.0354537E-1,3.36263E-2,7.287855E-2,9.887737E-1,1.3420994E0,8.4100413E-1,-1.0359229E0,-2.8959942E-1,-1.6087312E-1,4.3852803E-1,-7.9176515E-2,6.679608E-1,9.19433E-1,5.2626498E-2,-4.972219E-2,-8.711476E-1,3.4358382E-1,-3.227523E-1,-1.1969709E0,-1.117036E-2,-7.087708E-1,1.4606871E-2,-4.5484297E-2,4.0390207E-3,9.073919E-1,1.8347465E-1,1.0161571E-2,-8.547556E-1,7.020917E-2,3.6649298E-2,-6.0499527E-2,-6.352657E-3,-2.0860406E-2,2.4246989E-2,2.1196282E-2,6.996136E-2,3.4050453E-2,7.047703E-2,1.492402E-2,5.56958E-2,-1.3645236E-2,-6.406761E-2,-2.1981336E-2,2.2668062E-2,-2.9938681E-2,1.3535914E-2,5.6429394E-2,1.5049365E-2,-2.2595232E-2,8.67905E-3,6.1783316E-3,5.032754E-2,5.3170957E-2,1.4584243E-2,2.8799985E-2,-2.0466093E-2,-4.021105E-2,1.695129E-2,-5.9854742E-2,-2.7674535E-2,3.24269E-2,-5.621702E-3,-3.5190526E-2,2.9497657E-3,-6.3276164E-2,-2.7297739E-2,-5.386728E-3,-4.8443798E-2,1.1980404E-2,5.4733563E-2,-2.8317912E-2,2.6612008E-2,-6.0505327E-2,-1.8578297E-2],"categories":[],"categories_nodes":[],"categories_segments":[],"categories_sizes":[],"default_left":[0,0,0,0,0,0,0,0,0,0,0,0,0,0,0,0,0,0,0,0,0,0,0,0,0,0,0,0,0,0,0,0,0,0,0,0,0,0,0,0,0,0,0,0,0,0,0,0,0,0,0,0,0,0,0,0,0,0,0,0,0,0,0,0,0,0,0,0,0,0,0,0,0,0,0,0,0,0,0,0,0,0,0,0,0,0,0,0,0,0,0,0,0,0,0,0,0,0,0,0,0,0,0,0,0,0,0],"id":9,"left_children":[1,3,5,7,9,11,13,15,17,19,21,23,25,27,29,31,33,35,37,39,41,43,45,47,49,51,53,55,57,59,-1,61,-1,63,-1,65,67,69,71,73,75,77,79,81,83,85,87,89,91,93,95,97,-1,99,-1,-1,-1,101,103,-1,105,-1,-1,-1,-1,-1,-1,-1,-1,-1,-1,-1,-1,-1,-1,-1,-1,-1,-1,-1,-1,-1,-1,-1,-1,-1,-1,-1,-1,-1,-1,-1,-1,-1,-1,-1,-1,-1,-1,-1,-1,-1,-1,-1,-1,-1,-1],"loss_changes":[5.298283E2,1.8740321E2,1.7753003E2,6.1298096E1,1.2991037E2,1.1672244E2,4.3145306E1,3.7685837E1,2.9264801E1,6.5678474E1,7.746834E1,8.293314E1,4.7362244E1,3.84248E1,1.4455315E1,1.6870373E1,2.9832985E1,2.355935E1,1.1989471E1,3.4791298E1,3.344002E1,3.8430763E1,3.4307175E1,3.6690018E1,3.923654E1,1.7572113E1,2.8143513E1,1.1327212E1,2.2475128E1,1.6702793E1,0E0,4.2824173E0,0E0,1.5608067E1,0E0,1.0122348E1,1.5178314E1,8.361206E0,1.0348991E1,1.5123405E1,2.9482462E1,3.564428E1,1.7198738E1,2.454649E1,1.7151627E1,2.631755E1,1.3577805E1,2.092724E1,2.553865E1,2.445278E1,2.5962479E1,1.5490356E1,0E0,2.4450478E1,0E0,0E0,0E0,1.4758804E1,1.8254599E1,0E0,8.781544E0,0E0,0E0,0E0,0E0,0E0,0E0,0E0,0E0,0E0,0E0,0E0,0E0,0E0,0E0,0E0,0E0,0E0,0E0,0E0,0E0,0E0,0E0,0E0,0E0,0E0,0E0,0E0,0E0,0E0,0E0,0E0,0E0,0E0,0E0,0E0,0E0,0E0,0E0,0E0,0E0,0E0,0E0,0E0,0E0,0E0,0E0],"parents":[2147483647,0,0,1,1,2,2,3,3,4,4,5,5,6,6,7,7,8,8,9,9,10,10,11,11,12,12,13,13,14,14,15,15,16,16,17,17,18,18,19,19,20,20,21,21,22,22,23,23,24,24,25,25,26,26,27,27,28,28,29,29,31,31,33,33,35,35,36,36,37,37,38,38,39,39,40,40,41,41,42,42,43,43,44,44,45,45,46,46,47,47,48,48,49,49,50,50,51,51,53,53,57,57,58,58,60,60],"right_children":[2,4,6,8,10,12,14,16,18,20,22,24,26,28,30,32,34,36,38,40,42,44,46,48,50,52,54,56,58,60,-1,62,-1,64,-1,66,68,70,72,74,76,78,80,82,84,86,88,90,92,94,96,98,-1,100,-1,-1,-1,102,104,-1,106,-1,-1,-1,-1,-1,-1,-1,-1,-1,-1,-1,-1,-1,-1,-1,-1,-1,-1,-1,-1,-1,-1,-1,-1,-1,-1,-1,-1,-1,-1,-1,-1,-1,-1,-1,-1,-1,-1,-1,-1,-1,-1,-1,-1,-1,-1],"split_conditions":[-4.52728E-2,9.961317E-3,5.249744E-2,3.1984672E-2,4.39209E-2,7.820005E-2,-2.7452605E-2,2.8057588E-2,-4.095171E-2,-3.8162008E-2,-3.402588E-2,-7.860937E-2,-6.644533E-2,-6.0830195E-2,-4.7196165E-2,-3.94568E-2,-6.254678E-2,4.5372847E-2,-4.1228052E-2,6.528456E-3,-3.551909E-2,-1.9121222E-2,5.2402884E-2,-3.703446E-2,5.9222035E-2,7.72382E-2,7.176099E-2,6.5301515E-2,4.12009E-2,-6.952284E-2,1.6036613E-2,-4.1290395E-2,1.2349727E-2,-4.9422745E-2,3.36263E-2,5.3549476E-2,6.371262E-2,1.9603778E-2,5.880754E-2,-2.6088445E-2,7.229508E-2,-5.9205033E-2,2.803341E-2,-5.4691542E-2,-3.981019E-2,6.931014E-2,-4.8487227E-2,-4.1489143E-2,-3.5530083E-2,2.1994753E-2,8.027356E-2,7.262071E-2,-1.117036E-2,4.1850846E-2,1.4606871E-2,-4.5484297E-2,4.0390207E-3,-6.232547E-2,3.88232E-2,1.0161571E-2,4.0665045E-2,7.020917E-2,3.6649298E-2,-6.0499527E-2,-6.352657E-3,-2.0860406E-2,2.4246989E-2,2.1196282E-2,6.996136E-2,3.4050453E-2,7.047703E-2,1.492402E-2,5.56958E-2,-1.3645236E-2,-6.406761E-2,-2.1981336E-2,2.2668062E-2,-2.9938681E-2,1.3535914E-2,5.6429394E-2,1.5049365E-2,-2.2595232E-2,8.67905E-3,6.1783316E-3,5.032754E-2,5.3170957E-2,1.4584243E-2,2.8799985E-2,-2.0466093E-2,-4.021105E-2,1.695129E-2,-5.9854742E-2,-2.7674535E-2,3.24269E-2,-5.621702E-3,-3.5190526E-2,2.9497657E-3,-6.3276164E-2,-2.7297739E-2,-5.386728E-3,-4.8443798E-2,1.1980404E-2,5.4733563E-2,-2.8317912E-2,2.6612008E-2,-6.0505327E-2,-1.8578297E-2],"split_indices":[240,158,66,54,66,64,169,325,184,184,196,94,57,184,360,104,94,66,320,128,369,185,314,40,97,175,188,65,314,291,0,169,0,176,0,141,244,282,220,215,150,227,292,170,184,100,169,347,196,276,135,255,0,299,0,0,0,170,255,0,368,0,0,0,0,0,0,0,0,0,0,0,0,0,0,0,0,0,0,0,0,0,0,0,0,0,0,0,0,0,0,0,0,0,0,0,0,0,0,0,0,0,0,0,0,0,0],"split_type":[0,0,0,0,0,0,0,0,0,0,0,0,0,0,0,0,0,0,0,0,0,0,0,0,0,0,0,0,0,0,0,0,0,0,0,0,0,0,0,0,0,0,0,0,0,0,0,0,0,0,0,0,0,0,0,0,0,0,0,0,0,0,0,0,0,0,0,0,0,0,0,0,0,0,0,0,0,0,0,0,0,0,0,0,0,0,0,0,0,0,0,0,0,0,0,0,0,0,0,0,0,0,0,0,0,0,0],"sum_hessian":[3.546313E3,1.9731122E3,1.5732008E3,5.600185E2,1.4130938E3,1.2443298E3,3.2887094E2,1.6566222E2,3.9435626E2,7.1386865E2,6.9922504E2,6.72978E2,5.7135187E2,2.3196815E2,9.69028E1,8.548696E1,8.017525E1,1.151486E2,2.7920767E2,3.433388E2,3.7052985E2,3.5144363E2,3.477814E2,3.214748E2,3.5150323E2,3.816568E2,1.8969507E2,4.5208775E1,1.8675938E2,7.2957115E1,2.3945686E1,4.912352E1,3.6363445E1,5.354544E1,2.6629807E1,4.8122246E1,6.702635E1,2.0806534E2,7.1142334E1,8.162578E1,2.6171304E2,1.8674228E2,1.8378757E2,2.587186E2,9.272504E1,2.9359686E2,5.4184513E1,6.941899E1,2.5205579E2,1.7431323E2,1.7719002E2,3.6157605E2,2.0080732E1,1.56068E2,3.3627075E1,2.0253931E1,2.4954842E1,1.19109E2,6.7650375E1,2.0194311E1,5.2762802E1,2.906171E1,2.006181E1,2.2882664E1,3.0662779E1,2.197441E1,2.6147839E1,2.9063398E1,3.7962955E1,2.028825E1,1.877771E2,2.4510796E1,4.6631535E1,2.0379534E1,6.1246243E1,2.1808336E2,4.3629673E1,9.250136E1,9.424093E1,2.934656E1,1.5444101E2,1.04229294E2,1.5448932E2,3.6079838E1,5.66452E1,2.3825458E2,5.5342304E1,2.5287577E1,2.8896936E1,2.324172E1,4.6177277E1,1.2303809E2,1.2901768E2,1.0420544E2,7.010779E1,8.825286E1,8.893715E1,3.2627512E2,3.5300926E1,4.756701E1,1.0850098E2,2.6586983E1,9.252202E1,2.12785E1,4.6371876E1,2.9536467E1,2.3226336E1],"tree_param":{"num_deleted":"0","num_feature":"384","num_nodes":"107","size_leaf_vector":"1"}},{"base_weights":[-4.7427993E-3,3.840998E-1,-3.680207E-1,8.301581E-1,1.7529643E-1,-3.0548355E-4,-6.539725E-1,1.0578376E0,4.8747844E-1,3.102596E-1,-4.0068802E-1,-5.761622E-1,2.0970067E-1,-4.4879386E-1,-1.1512157E0,1.1647011E0,5.1673543E-1,7.225929E-1,-1.7228222E-1,6.1964955E-2,5.890399E-1,1.2554169E-2,-7.133744E-1,-1.7225888E-1,-9.088967E-1,3.585216E-1,-4.060025E-1,-7.5114536E-1,-6.3271224E-2,-5.930237E-1,-1.2606326E0,1.2385046E0,2.5114039E-2,2.2552693E-3,4.8189882E-2,2.8484043E-1,1.0999323E0,2.9644003E-2,-3.340674E-2,-1.6762571E-1,4.5986724E-1,9.729947E-1,3.6891606E-1,-3.4552947E-2,3.1814775E-1,-8.9322144E-1,4.945413E-3,6.196578E-2,-4.6697374E-2,-1.332656E-2,-1.1107647E0,-4.880555E-1,4.9928507E-1,-1.9048703E-1,-4.973431E-2,-9.8537964E-1,-3.7383822E-1,-7.0664304E-1,2.7987832E-1,3.9089187E-3,-5.2144773E-2,-1.3174192E0,-2.9684374E-2,3.932919E-2,6.597715E-2,-8.525315E-3,3.697069E-2,2.8324513E-2,6.293818E-2,-2.0968879E-2,1.6823392E-2,-4.5048306E-3,3.3936176E-2,6.0923677E-2,2.8998936E-2,-2.7896304E-2,2.314938E-2,-1.4699668E-2,4.163806E-2,-5.577604E-2,-2.1882808E-2,2.2525737E-2,-2.252466E-2,-2.6686093E-2,-6.4689144E-2,1.4586017E-2,-4.1890234E-2,-5.471722E-3,3.0399049E-2,2.7077848E-2,-2.179952E-2,-5.6358248E-2,-2.959106E-2,-2.3168563E-3,-4.413E-2,-4.5894735E-2,-7.352614E-3,2.5334543E-2,-1.5672004E-2,-6.8219624E-2,-4.0401123E-2],"categories":[],"categories_nodes":[],"categories_segments":[],"categories_sizes":[],"default_left":[0,0,0,0,0,0,0,0,0,0,0,0,0,0,0,0,0,0,0,0,0,0,0,0,0,0,0,0,0,0,0,0,0,0,0,0,0,0,0,0,0,0,0,0,0,0,0,0,0,0,0,0,0,0,0,0,0,0,0,0,0,0,0,0,0,0,0,0,0,0,0,0,0,0,0,0,0,0,0,0,0,0,0,0,0,0,0,0,0,0,0,0,0,0,0,0,0,0,0,0,0],"id":10,"left_children":[1,3,5,7,9,11,13,15,17,19,21,23,25,27,29,31,33,35,37,39,41,43,45,47,49,51,53,55,57,59,61,63,-1,-1,-1,65,67,-1,-1,69,71,73,75,-1,77,79,-1,81,-1,-1,83,85,87,89,-1,91,93,95,97,-1,-1,99,-1,-1,-1,-1,-1,-1,-1,-1,-1,-1,-1,-1,-1,-1,-1,-1,-1,-1,-1,-1,-1,-1,-1,-1,-1,-1,-1,-1,-1,-1,-1,-1,-1,-1,-1,-1,-1,-1,-1],"loss_changes":[4.966083E2,1.5800963E2,1.9111287E2,4.170642E1,9.0135826E1,9.6396095E1,1.0379715E2,1.8149506E1,3.3921753E1,6.493688E1,2.846828E1,2.847026E1,5.3665665E1,8.45107E1,1.7454193E1,1.25781555E1,1.1611928E1,2.625235E1,2.2421432E1,4.5534306E1,3.7003265E1,2.0829943E1,1.8406944E1,1.7443316E1,1.4818695E1,5.6362446E1,1.4294985E1,3.5555405E1,7.083398E1,1.5400261E1,8.621399E0,7.834137E0,0E0,0E0,0E0,1.5816425E1,6.575531E0,0E0,0E0,4.0276836E1,2.2006756E1,1.4775558E1,2.4897064E1,0E0,2.1512281E1,9.918915E0,0E0,1.5229769E1,0E0,0E0,8.64254E0,1.8692858E1,2.6815872E1,1.5477884E1,0E0,1.32929535E1,2.6168678E1,1.3054729E1,2.8334898E1,0E0,0E0,4.3527527E0,0E0,0E0,0E0,0E0,0E0,0E0,0E0,0E0,0E0,0E0,0E0,0E0,0E0,0E0,0E0,0E0,0E0,0E0,0E0,0E0,0E0,0E0,0E0,0E0,0E0,0E0,0E0,0E0,0E0,0E0,0E0,0E0,0E0,0E0,0E0,0E0,0E0,0E0,0E0],"parents":[2147483647,0,0,1,1,2,2,3,3,4,4,5,5,6,6,7,7,8,8,9,9,10,10,11,11,12,12,13,13,14,14,15,15,16,16,17,17,18,18,19,19,20,20,21,21,22,22,23,23,24,24,25,25,26,26,27,27,28,28,29,29,30,30,31,31,35,35,36,36,39,39,40,40,41,41,42,42,44,44,45,45,47,47,50,50,51,51,52,52,53,53,55,55,56,56,57,57,58,58,61,61],"right_children":[2,4,6,8,10,12,14,16,18,20,22,24,26,28,30,32,34,36,38,40,42,44,46,48,50,52,54,56,58,60,62,64,-1,-1,-1,66,68,-1,-1,70,72,74,76,-1,78,80,-1,82,-1,-1,84,86,88,90,-1,92,94,96,98,-1,-1,100,-1,-1,-1,-1,-1,-1,-1,-1,-1,-1,-1,-1,-1,-1,-1,-1,-1,-1,-1,-1,-1,-1,-1,-1,-1,-1,-1,-1,-1,-1,-1,-1,-1,-1,-1,-1,-1,-1,-1],"split_conditions":[-5.0463688E-2,-5.445071E-2,2.3118177E-2,4.2930037E-2,5.0050776E-2,-9.097324E-2,9.4948046E-2,2.7312515E-2,4.1079417E-2,-2.9641662E-2,6.694081E-2,5.799837E-2,-1.9997464E-2,5.574343E-2,-2.3100344E-2,4.5663416E-2,4.1335378E-2,-4.9909174E-2,-1.0853571E-2,6.0384657E-2,-8.0487885E-2,3.3277854E-2,7.862388E-2,4.00954E-2,2.2528E-2,-6.0830195E-2,-1.3271807E-2,-4.0342554E-2,-6.6493236E-2,-5.5636518E-2,5.6229696E-2,-4.786655E-2,2.5114039E-2,2.2552693E-3,4.8189882E-2,5.6114823E-2,-3.845488E-2,2.9644003E-2,-3.340674E-2,-3.1105632E-2,-5.2738383E-2,2.2597784E-2,-7.122251E-2,-3.4552947E-2,1.8857278E-2,-5.5476643E-2,4.945413E-3,-3.6065545E-2,-4.6697374E-2,-1.332656E-2,7.1309283E-3,-5.119331E-3,-5.1694155E-2,-7.166694E-2,-4.973431E-2,-4.057489E-2,1.4987878E-2,8.553104E-2,4.9201496E-2,3.9089187E-3,-5.2144773E-2,5.7605833E-2,-2.9684374E-2,3.932919E-2,6.597715E-2,-8.525315E-3,3.697069E-2,2.8324513E-2,6.293818E-2,-2.0968879E-2,1.6823392E-2,-4.5048306E-3,3.3936176E-2,6.0923677E-2,2.8998936E-2,-2.7896304E-2,2.314938E-2,-1.4699668E-2,4.163806E-2,-5.577604E-2,-2.1882808E-2,2.2525737E-2,-2.252466E-2,-2.6686093E-2,-6.4689144E-2,1.4586017E-2,-4.1890234E-2,-5.471722E-3,3.0399049E-2,2.7077848E-2,-2.179952E-2,-5.6358248E-2,-2.959106E-2,-2.3168563E-3,-4.413E-2,-4.5894735E-2,-7.352614E-3,2.5334543E-2,-1.5672004E-2,-6.8219624E-2,-4.0401123E-2],"split_indices":[240,169,330,108,325,94,64,129,325,369,64,263,169,188,366,158,67,92,373,284,80,113,43,325,45,184,31,172,227,160,179,172,0,0,0,197,151,0,0,117,149,158,149,0,306,360,0,331,0,0,52,63,149,313,0,92,11,350,325,0,0,229,0,0,0,0,0,0,0,0,0,0,0,0,0,0,0,0,0,0,0,0,0,0,0,0,0,0,0,0,0,0,0,0,0,0,0,0,0,0,0],"split_type":[0,0,0,0,0,0,0,0,0,0,0,0,0,0,0,0,0,0,0,0,0,0,0,0,0,0,0,0,0,0,0,0,0,0,0,0,0,0,0,0,0,0,0,0,0,0,0,0,0,0,0,0,0,0,0,0,0,0,0,0,0,0,0,0,0,0,0,0,0,0,0,0,0,0,0,0,0,0,0,0,0,0,0,0,0,0,0,0,0,0,0,0,0,0,0,0,0,0,0,0,0],"sum_hessian":[3.513613E3,1.6970647E3,1.8165483E3,5.401622E2,1.1569025E3,7.951013E2,1.021447E3,3.23283E2,2.1687917E2,9.3765497E2,2.1924753E2,2.12009E2,5.830923E2,7.2442737E2,2.9701965E2,2.690043E2,5.4278698E1,1.5982733E2,5.705183E1,4.9659064E2,4.4106433E2,9.48521E1,1.2439543E2,9.6448616E1,1.1556039E2,4.6992493E2,1.1316735E2,4.0547757E2,3.1894983E2,4.9731853E1,2.472878E2,2.4125517E2,2.7749136E1,2.694931E1,2.7329386E1,7.480301E1,8.502432E1,2.235681E1,3.4695023E1,3.1526224E2,1.813284E2,1.5947578E2,2.8158856E2,2.8339811E1,6.651228E1,1.0176422E2,2.2631208E1,7.4467865E1,2.1980751E1,2.8186937E1,8.737345E1,6.6644646E1,4.0328027E2,8.380877E1,2.9358578E1,2.491761E2,1.5630145E2,1.1057438E2,2.0837543E2,2.0288269E1,2.9443584E1,2.2698593E2,2.030186E1,3.8311565E1,2.029436E2,3.7681904E1,3.712111E1,2.0555246E1,6.446908E1,2.103689E2,1.04893326E2,5.1785355E1,1.2954305E2,9.687011E1,6.2605663E1,2.549248E1,2.5609607E2,3.0573418E1,3.5938866E1,6.741802E1,3.43462E1,4.2423233E1,3.2044632E1,2.1981997E1,6.539146E1,2.0687405E1,4.595724E1,6.1100143E1,3.4218015E2,2.0745064E1,6.3063705E1,1.8181168E2,6.736442E1,9.575375E1,6.0547707E1,7.980633E1,3.0768051E1,1.5085349E2,5.752195E1,2.0628523E2,2.0700705E1],"tree_param":{"num_deleted":"0","num_feature":"384","num_nodes":"101","size_leaf_vector":"1"}},{"base_weights":[-1.0052785E-2,2.4998206E-1,-5.059608E-1,-1.0935691E-2,6.1986005E-1,-8.486701E-1,-1.4139007E-1,-4.841422E-1,1.7873028E-1,1.4672127E-1,8.0884457E-1,-4.1497722E-1,-1.078E0,3.4293684E-1,-4.438567E-1,-1.8815063E-2,-7.102984E-1,4.8278996E-1,-1.10048875E-1,-2.2871967E-1,5.9024405E-1,1.1526759E0,6.2581784E-1,-7.334273E-2,-7.496358E-1,-1.2053057E0,-6.8353575E-1,-7.712973E-2,7.702566E-1,-7.555278E-1,-2.702778E-2,2.0754987E-1,-5.043407E-2,-8.240269E-1,-4.0515114E-4,2.1718974E-1,8.381686E-1,-6.9920325E-1,4.5024652E-2,2.1098264E-1,-5.348839E-1,8.3656317E-1,-1.5553082E-3,1.228057E0,1.8262004E-2,8.1020844E-1,2.4434283E-1,5.911461E-1,-4.7969723E-1,1.9785894E-4,-9.2055136E-1,-7.848019E-1,-1.2752979E0,-1.0310296E0,-3.1001177E-1,6.083603E-1,-4.7218898E-1,9.740991E-1,-1.9525227E-3,-9.2455524E-1,1.3190686E-2,-4.3491396E-1,4.5316124E-1,4.0623825E-2,-8.731024E-3,-6.9233524E-3,-4.7488585E-2,-1.3042937E-2,2.3695692E-2,4.9559455E-2,-1.1499252E-2,-7.3343525E-3,-5.37859E-2,-2.27595E-2,1.3898256E-2,3.773128E-2,-1.742338E-2,-4.723892E-2,-6.6129076E-3,1.1785048E-2,5.73125E-2,3.0360354E-2,6.547013E-2,5.2404482E-2,1.9111091E-2,-2.6184494E-2,2.0078888E-2,1.9468565E-3,5.5505134E-2,-3.872296E-2,6.4658145E-3,-1.5874485E-2,-5.806738E-2,-1.4242278E-2,-6.2059857E-2,-6.811132E-2,-4.7926452E-2,-2.3737298E-2,-6.868636E-2,1.240365E-2,-4.020163E-2,2.6798746E-4,5.84924E-2,1.8244566E-2,-4.3112006E-2,2.815847E-2,5.868795E-2,-5.2831393E-2,-1.753108E-2,-3.9949633E-2,2.6874754E-3,5.0709575E-2,7.4595883E-3],"categories":[],"categories_nodes":[],"categories_segments":[],"categories_sizes":[],"default_left":[0,0,0,0,0,0,0,0,0,0,0,0,0,0,0,0,0,0,0,0,0,0,0,0,0,0,0,0,0,0,0,0,0,0,0,0,0,0,0,0,0,0,0,0,0,0,0,0,0,0,0,0,0,0,0,0,0,0,0,0,0,0,0,0,0,0,0,0,0,0,0,0,0,0,0,0,0,0,0,0,0,0,0,0,0,0,0,0,0,0,0,0,0,0,0,0,0,0,0,0,0,0,0,0,0,0,0,0,0,0,0,0,0],"id":11,"left_children":[1,3,5,7,9,11,13,15,17,19,21,23,25,27,29,31,33,35,37,39,41,43,45,47,49,51,53,55,57,59,61,63,-1,65,-1,67,69,71,73,75,77,79,-1,81,-1,83,85,87,89,-1,91,93,95,97,99,101,103,105,-1,107,-1,109,111,-1,-1,-1,-1,-1,-1,-1,-1,-1,-1,-1,-1,-1,-1,-1,-1,-1,-1,-1,-1,-1,-1,-1,-1,-1,-1,-1,-1,-1,-1,-1,-1,-1,-1,-1,-1,-1,-1,-1,-1,-1,-1,-1,-1,-1,-1,-1,-1,-1,-1],"loss_changes":[4.505035E2,2.2118619E2,1.5002591E2,1.20787254E2,8.464703E1,6.114099E1,8.56294E1,4.050953E1,8.4414856E1,4.539418E1,4.1894653E1,2.4618816E1,1.9485382E1,4.042514E1,4.6698532E1,2.8658798E1,2.0684814E1,4.400978E1,4.512632E1,2.0025764E1,1.9139198E1,1.3445007E1,3.1042282E1,2.9418678E1,1.4031296E1,7.959442E0,1.2787949E1,3.1243196E1,1.8443253E1,3.5689766E1,3.053422E1,2.4223171E1,0E0,1.9090042E1,0E0,3.317257E1,3.290161E1,2.1250118E1,4.5764637E1,1.8947807E1,1.431279E1,1.6377449E1,0E0,9.971832E0,0E0,3.003807E1,1.7860088E1,1.1818917E1,1.2218679E1,0E0,1.2523422E1,1.0152348E1,5.837097E0,9.239117E0,1.4012194E1,1.4291679E1,2.4175402E1,6.654045E0,0E0,1.3022537E1,0E0,1.5033893E1,1.2064109E1,0E0,0E0,0E0,0E0,0E0,0E0,0E0,0E0,0E0,0E0,0E0,0E0,0E0,0E0,0E0,0E0,0E0,0E0,0E0,0E0,0E0,0E0,0E0,0E0,0E0,0E0,0E0,0E0,0E0,0E0,0E0,0E0,0E0,0E0,0E0,0E0,0E0,0E0,0E0,0E0,0E0,0E0,0E0,0E0,0E0,0E0,0E0,0E0,0E0,0E0],"parents":[2147483647,0,0,1,1,2,2,3,3,4,4,5,5,6,6,7,7,8,8,9,9,10,10,11,11,12,12,13,13,14,14,15,15,16,16,17,17,18,18,19,19,20,20,21,21,22,22,23,23,24,24,25,25,26,26,27,27,28,28,29,29,30,30,31,31,33,33,35,35,36,36,37,37,38,38,39,39,40,40,41,41,43,43,45,45,46,46,47,47,48,48,50,50,51,51,52,52,53,53,54,54,55,55,56,56,57,57,59,59,61,61,62,62],"right_children":[2,4,6,8,10,12,14,16,18,20,22,24,26,28,30,32,34,36,38,40,42,44,46,48,50,52,54,56,58,60,62,64,-1,66,-1,68,70,72,74,76,78,80,-1,82,-1,84,86,88,90,-1,92,94,96,98,100,102,104,106,-1,108,-1,110,112,-1,-1,-1,-1,-1,-1,-1,-1,-1,-1,-1,-1,-1,-1,-1,-1,-1,-1,-1,-1,-1,-1,-1,-1,-1,-1,-1,-1,-1,-1,-1,-1,-1,-1,-1,-1,-1,-1,-1,-1,-1,-1,-1,-1,-1,-1,-1,-1,-1,-1],"split_conditions":[-3.785319E-2,2.603322E-2,4.3442376E-2,-5.094181E-2,-4.490989E-2,2.7521785E-2,1.2261732E-2,2.4199056E-2,2.5822073E-2,-4.121502E-2,8.943088E-3,-3.3876985E-2,7.986317E-2,1.730376E-2,7.630513E-2,-2.2863438E-2,-5.2168544E-2,-3.783329E-2,2.3479711E-2,-4.60344E-2,-5.7623968E-2,-1.2278154E-2,4.7818813E-2,4.6513304E-2,5.2925155E-2,-3.9471056E-2,-2.2275567E-2,-3.60538E-2,5.721967E-2,-1.3411711E-2,-7.153324E-2,2.2713463E-4,-5.043407E-2,-3.5559384E-3,-4.0515114E-4,-7.044199E-2,-1.6733153E-2,-6.10038E-2,4.7332436E-2,-5.420552E-2,-3.751505E-2,-4.109116E-2,-1.5553082E-3,2.3970237E-2,1.8262004E-2,1.964414E-2,3.0893698E-2,1.591778E-2,-3.3457838E-2,1.9785894E-4,2.1807402E-2,4.5648713E-2,-1.14977425E-2,-4.1348964E-2,-3.0908383E-2,6.5402605E-2,3.881545E-2,-6.318263E-2,-1.9525227E-3,-1.1286204E-2,1.3190686E-2,5.173081E-2,-6.6843845E-2,4.0623825E-2,-8.731024E-3,-6.9233524E-3,-4.7488585E-2,-1.3042937E-2,2.3695692E-2,4.9559455E-2,-1.1499252E-2,-7.3343525E-3,-5.37859E-2,-2.27595E-2,1.3898256E-2,3.773128E-2,-1.742338E-2,-4.723892E-2,-6.6129076E-3,1.1785048E-2,5.73125E-2,3.0360354E-2,6.547013E-2,5.2404482E-2,1.9111091E-2,-2.6184494E-2,2.0078888E-2,1.9468565E-3,5.5505134E-2,-3.872296E-2,6.4658145E-3,-1.5874485E-2,-5.806738E-2,-1.4242278E-2,-6.2059857E-2,-6.811132E-2,-4.7926452E-2,-2.3737298E-2,-6.868636E-2,1.240365E-2,-4.020163E-2,2.6798746E-4,5.84924E-2,1.8244566E-2,-4.3112006E-2,2.815847E-2,5.868795E-2,-5.2831393E-2,-1.753108E-2,-3.9949633E-2,2.6874754E-3,5.0709575E-2,7.4595883E-3],"split_indices":[240,216,0,184,172,330,276,325,158,170,158,99,350,216,350,376,94,312,0,169,251,274,250,299,64,40,261,99,45,172,94,276,0,63,0,227,169,326,220,50,269,278,0,282,0,276,204,306,224,0,237,325,289,293,99,188,353,33,0,347,0,23,50,0,0,0,0,0,0,0,0,0,0,0,0,0,0,0,0,0,0,0,0,0,0,0,0,0,0,0,0,0,0,0,0,0,0,0,0,0,0,0,0,0,0,0,0,0,0,0,0,0,0],"split_type":[0,0,0,0,0,0,0,0,0,0,0,0,0,0,0,0,0,0,0,0,0,0,0,0,0,0,0,0,0,0,0,0,0,0,0,0,0,0,0,0,0,0,0,0,0,0,0,0,0,0,0,0,0,0,0,0,0,0,0,0,0,0,0,0,0,0,0,0,0,0,0,0,0,0,0,0,0,0,0,0,0,0,0,0,0,0,0,0,0,0,0,0,0,0,0,0,0,0,0,0,0,0,0,0,0,0,0,0,0,0,0,0,0],"sum_hessian":[3.4915576E3,2.290831E3,1.2007266E3,1.3438374E3,9.469936E2,6.1823553E2,5.82491E2,3.8406442E2,9.5977295E2,2.7079977E2,6.7619385E2,2.1481035E2,4.034252E2,2.2387529E2,3.5861575E2,1.25966194E2,2.5809824E2,4.6719003E2,4.9258292E2,1.469182E2,1.23881584E2,2.3306447E2,4.4312936E2,1.069006E2,1.0790975E2,3.0344016E2,9.998504E1,1.1330903E2,1.1056625E2,2.0472575E2,1.5389E2,1.03164604E2,2.2801596E1,2.219736E2,3.6124626E1,2.682892E2,1.9890082E2,1.0190755E2,3.9067535E2,6.0434784E1,8.648342E1,8.846531E1,3.541628E1,2.1219182E2,2.087265E1,2.979754E2,1.4515396E2,4.0393158E1,6.650744E1,2.0130058E1,8.777969E1,4.5042625E1,2.5839752E2,5.0885437E1,4.9099606E1,4.1229477E1,7.207955E1,8.815802E1,2.2408236E1,1.7568639E2,2.9039375E1,8.3260475E1,7.0629524E1,3.9505894E1,6.365871E1,3.472954E1,1.8724406E2,9.373264E1,1.7455658E2,1.7404039E2,2.4860435E1,4.186395E1,6.00436E1,1.2382352E2,2.6685184E2,3.047347E1,2.9961311E1,4.218763E1,4.4295788E1,3.0686905E1,5.7778404E1,2.556186E1,1.8662996E2,1.9059247E2,1.07382935E2,2.4270624E1,1.2088335E2,2.009044E1,2.0302717E1,4.46333E1,2.1874136E1,2.5709667E1,6.2070026E1,2.2270555E1,2.2772072E1,2.0016676E2,5.8230766E1,2.0307165E1,3.0578272E1,2.3288704E1,2.5810904E1,2.0366623E1,2.0862854E1,2.2931425E1,4.914813E1,3.0076576E1,5.8081444E1,1.4213702E2,3.354935E1,4.734845E1,3.591202E1,2.3998846E1,4.6630672E1],"tree_param":{"num_deleted":"0","num_feature":"384","num_nodes":"113","size_leaf_vector":"1"}},{"base_weights":[-4.5542195E-3,4.578501E-1,-2.4979696E-1,8.8595045E-1,2.5313562E-1,-6.102299E-1,1.674753E-2,5.4368526E-1,1.0878266E0,-7.408224E-2,4.787129E-1,-2.1087085E-1,-8.843725E-1,-3.772595E-1,3.4115458E-1,-1.54988915E-2,7.2670424E-1,8.38309E-1,1.3109822E0,-5.378585E-1,1.4895983E-1,-5.4378897E-2,6.799129E-1,9.5614016E-2,-5.6561196E-1,-6.006828E-1,-1.0962181E0,-3.6823608E-2,-6.4266944E-1,-4.8702532E-1,4.750126E-1,5.246155E-3,9.3930167E-1,1.21241445E-2,1.0857432E0,4.6031807E-2,1.4003628E0,-1.09202385E-1,-9.3493235E-1,-1.7780837E-1,4.6310246E-1,3.341965E-1,-4.627944E-1,8.225447E-1,8.843467E-2,3.351889E-1,-6.789756E-1,-7.22422E-1,1.2547816E-2,-2.304206E-1,-9.7560656E-1,-8.015074E-1,-1.2255396E0,4.676086E-1,-2.7931798E-1,-8.08156E-1,-1.6414028E-1,2.0379595E-2,-7.277631E-1,5.9121823E-1,-5.95046E-1,5.5166285E-2,1.9621978E-2,2.7762676E-2,6.231109E-2,5.506134E-2,7.356092E-2,2.1193242E-2,-2.5069112E-2,-3.1457376E-2,-6.785136E-2,9.161199E-3,-2.7520088E-2,-1.100614E-2,3.5065405E-2,-1.1699273E-2,3.928357E-2,-4.2705137E-2,-6.22397E-4,4.8803322E-2,1.3867422E-2,3.734788E-2,-9.825707E-3,-1.349445E-2,3.108619E-2,-3.1116954E-3,-5.995313E-2,-5.340947E-2,-2.0100266E-2,5.8657206E-3,-4.3540936E-2,-5.9986997E-2,-3.0052302E-2,-5.010278E-2,-2.0697578E-3,-6.392696E-2,-3.561532E-2,-8.318658E-3,3.5215713E-2,1.6665675E-2,-2.638498E-2,-8.63549E-3,-4.6664685E-2,1.3807656E-2,-2.678541E-2,2.2861639E-3,-5.0874233E-2,4.440167E-2,1.4177364E-2,-5.7061017E-2,-9.0680495E-3],"categories":[],"categories_nodes":[],"categories_segments":[],"categories_sizes":[],"default_left":[0,0,0,0,0,0,0,0,0,0,0,0,0,0,0,0,0,0,0,0,0,0,0,0,0,0,0,0,0,0,0,0,0,0,0,0,0,0,0,0,0,0,0,0,0,0,0,0,0,0,0,0,0,0,0,0,0,0,0,0,0,0,0,0,0,0,0,0,0,0,0,0,0,0,0,0,0,0,0,0,0,0,0,0,0,0,0,0,0,0,0,0,0,0,0,0,0,0,0,0,0,0,0,0,0,0,0,0,0,0,0],"id":12,"left_children":[1,3,5,7,9,11,13,15,17,19,21,23,25,27,29,-1,31,33,35,37,39,41,43,45,47,49,51,53,55,57,59,-1,61,-1,63,-1,65,67,69,71,73,75,77,79,81,83,85,87,-1,89,91,93,95,97,99,101,103,-1,105,107,109,-1,-1,-1,-1,-1,-1,-1,-1,-1,-1,-1,-1,-1,-1,-1,-1,-1,-1,-1,-1,-1,-1,-1,-1,-1,-1,-1,-1,-1,-1,-1,-1,-1,-1,-1,-1,-1,-1,-1,-1,-1,-1,-1,-1,-1,-1,-1,-1,-1,-1],"loss_changes":[3.9648315E2,1.05965256E2,2.194947E2,2.646457E1,6.0643433E1,1.0614929E2,1.681244E2,2.3234787E1,1.2559753E1,3.4829323E1,5.2182877E1,4.3179943E1,3.3934723E1,5.3644814E1,8.019976E1,0E0,1.5972E1,1.7219315E1,3.166748E0,1.8503231E1,2.3448086E1,2.1442682E1,2.9710312E1,3.9876755E1,2.3741798E1,3.4242874E1,1.1530792E1,3.2089607E1,2.6293396E1,2.2019354E1,7.7632385E1,0E0,7.682068E0,0E0,6.416664E0,0E0,5.418854E-1,1.1438209E1,6.4532585E0,1.5206068E1,1.9086876E1,1.7965845E1,1.1588381E1,2.3526764E1,1.3227886E1,2.857649E1,1.6220884E1,1.6700386E1,0E0,2.8212381E1,9.609924E0,1.5662987E1,5.2448425E0,1.2902399E1,2.7120415E1,1.9535477E1,1.4381615E1,0E0,1.7937294E1,5.0989822E1,1.3661329E1,0E0,0E0,0E0,0E0,0E0,0E0,0E0,0E0,0E0,0E0,0E0,0E0,0E0,0E0,0E0,0E0,0E0,0E0,0E0,0E0,0E0,0E0,0E0,0E0,0E0,0E0,0E0,0E0,0E0,0E0,0E0,0E0,0E0,0E0,0E0,0E0,0E0,0E0,0E0,0E0,0E0,0E0,0E0,0E0,0E0,0E0,0E0,0E0,0E0,0E0],"parents":[2147483647,0,0,1,1,2,2,3,3,4,4,5,5,6,6,7,7,8,8,9,9,10,10,11,11,12,12,13,13,14,14,16,16,17,17,18,18,19,19,20,20,21,21,22,22,23,23,24,24,25,25,26,26,27,27,28,28,29,29,30,30,32,32,34,34,36,36,37,37,38,38,39,39,40,40,41,41,42,42,43,43,44,44,45,45,46,46,47,47,49,49,50,50,51,51,52,52,53,53,54,54,55,55,56,56,58,58,59,59,60,60],"right_children":[2,4,6,8,10,12,14,16,18,20,22,24,26,28,30,-1,32,34,36,38,40,42,44,46,48,50,52,54,56,58,60,-1,62,-1,64,-1,66,68,70,72,74,76,78,80,82,84,86,88,-1,90,92,94,96,98,100,102,104,-1,106,108,110,-1,-1,-1,-1,-1,-1,-1,-1,-1,-1,-1,-1,-1,-1,-1,-1,-1,-1,-1,-1,-1,-1,-1,-1,-1,-1,-1,-1,-1,-1,-1,-1,-1,-1,-1,-1,-1,-1,-1,-1,-1,-1,-1,-1,-1,-1,-1,-1,-1,-1],"split_conditions":[-5.9757344E-2,-5.445071E-2,3.8762167E-2,6.1609615E-2,2.0493621E-2,2.8418878E-2,-7.608921E-2,7.919585E-3,-2.6400538E-2,-8.186127E-2,-4.769146E-2,5.43645E-2,3.451755E-2,2.1994753E-2,-6.0830195E-2,-1.54988915E-2,2.280126E-2,-6.0374185E-2,-2.3443667E-2,-3.8748458E-2,4.9147796E-2,3.7981197E-2,2.7615348E-2,9.122455E-2,7.576194E-2,-3.3355813E-2,3.387635E-2,-3.58024E-2,8.262409E-2,-1.304457E-2,-8.858536E-3,5.246155E-3,-4.412053E-2,1.21241445E-2,3.0516664E-2,4.6031807E-2,3.896449E-2,6.8281755E-2,-2.6651886E-3,5.6832965E-2,2.902915E-2,-4.872632E-2,-3.9159495E-2,-4.4260483E-2,-4.1528083E-2,3.271357E-2,2.865193E-2,-2.0646326E-2,1.2547816E-2,6.835323E-2,7.4633084E-2,7.5017855E-2,9.0351775E-2,3.207757E-2,-3.0056354E-2,-7.284006E-2,-6.546758E-2,2.0379595E-2,1.8576475E-2,3.689059E-2,3.8147494E-2,5.5166285E-2,1.9621978E-2,2.7762676E-2,6.231109E-2,5.506134E-2,7.356092E-2,2.1193242E-2,-2.5069112E-2,-3.1457376E-2,-6.785136E-2,9.161199E-3,-2.7520088E-2,-1.100614E-2,3.5065405E-2,-1.1699273E-2,3.928357E-2,-4.2705137E-2,-6.22397E-4,4.8803322E-2,1.3867422E-2,3.734788E-2,-9.825707E-3,-1.349445E-2,3.108619E-2,-3.1116954E-3,-5.995313E-2,-5.340947E-2,-2.0100266E-2,5.8657206E-3,-4.3540936E-2,-5.9986997E-2,-3.0052302E-2,-5.010278E-2,-2.0697578E-3,-6.392696E-2,-3.561532E-2,-8.318658E-3,3.5215713E-2,1.6665675E-2,-2.638498E-2,-8.63549E-3,-4.6664685E-2,1.3807656E-2,-2.678541E-2,2.2861639E-3,-5.0874233E-2,4.440167E-2,1.4177364E-2,-5.7061017E-2,-9.0680495E-3],"split_indices":[240,169,0,244,281,330,94,216,369,94,348,299,171,276,184,0,133,360,316,228,134,102,129,64,244,240,76,40,44,63,169,0,318,0,133,0,371,64,290,97,0,312,61,266,169,282,325,289,0,97,350,220,350,368,121,50,56,0,382,377,284,0,0,0,0,0,0,0,0,0,0,0,0,0,0,0,0,0,0,0,0,0,0,0,0,0,0,0,0,0,0,0,0,0,0,0,0,0,0,0,0,0,0,0,0,0,0,0,0,0,0],"split_type":[0,0,0,0,0,0,0,0,0,0,0,0,0,0,0,0,0,0,0,0,0,0,0,0,0,0,0,0,0,0,0,0,0,0,0,0,0,0,0,0,0,0,0,0,0,0,0,0,0,0,0,0,0,0,0,0,0,0,0,0,0,0,0,0,0,0,0,0,0,0,0,0,0,0,0,0,0,0,0,0,0,0,0,0,0,0,0,0,0,0,0,0,0,0,0,0,0,0,0,0,0,0,0,0,0,0,0,0,0,0,0],"sum_hessian":[3.4942756E3,1.2106786E3,2.2835972E3,3.9057584E2,8.2010266E2,9.702686E2,1.3133285E3,1.4627359E2,2.4430226E2,3.349306E2,4.851721E2,3.95659E2,5.746096E2,5.92973E2,7.203554E2,2.5701115E1,1.2057247E2,1.1758415E2,1.267181E2,1.0830928E2,2.266213E2,1.3313982E2,3.520323E2,2.1265897E2,1.8300003E2,2.4729025E2,3.273194E2,2.6026947E2,3.3270355E2,9.98632E1,6.204922E2,3.1102085E1,8.947038E1,3.5083183E1,8.250097E1,2.5714983E1,1.0100312E2,5.269648E1,5.5612804E1,1.1129122E2,1.1533009E2,6.8320206E1,6.481961E1,2.8332047E2,6.871182E1,1.6285605E2,4.9802914E1,1.5361566E2,2.9384365E1,1.2523094E2,1.2205931E2,1.0202114E2,2.2529825E2,8.4196724E1,1.7607275E2,2.4670004E2,8.60035E1,2.1027775E1,7.883542E1,5.6011285E2,6.0379333E1,6.8043945E1,2.1426437E1,2.0196838E1,6.2304134E1,2.2510557E1,7.849256E1,2.2301949E1,3.0394531E1,3.369392E1,2.1918886E1,5.6780643E1,5.451058E1,2.9834423E1,8.549567E1,3.046353E1,3.7856678E1,3.4203484E1,3.0616127E1,2.2045287E2,6.286759E1,2.0262762E1,4.8449062E1,5.2355217E1,1.1050083E2,2.3296534E1,2.650638E1,7.276255E1,8.085311E1,8.169015E1,4.3540794E1,7.4985596E1,4.707371E1,8.0471275E1,2.1549866E1,2.0285864E2,2.2439606E1,2.2970552E1,6.122617E1,5.0694122E1,1.25378624E2,4.0980774E1,2.0571927E2,3.9479103E1,4.6524403E1,2.1711952E1,5.712347E1,2.8412576E2,2.7598712E2,2.526463E1,3.5114704E1],"tree_param":{"num_deleted":"0","num_feature":"384","num_nodes":"111","size_leaf_vector":"1"}},{"base_weights":[-9.529133E-3,-2.7753153E-1,4.1529766E-1,-8.84378E-1,-1.3092686E-1,7.022723E-1,4.9798682E-2,-1.1029233E0,-2.3488572E-1,-4.795843E-1,1.3150565E-1,4.9919754E-2,8.457058E-1,-1.2953733E-1,5.553011E-1,-2.599121E-2,-1.1791605E0,-7.0834154E-1,2.922544E-1,-2.2965679E-1,-7.5480944E-1,-6.0497516E-1,2.278065E-1,4.8589942E-1,-7.1525675E-1,9.252444E-1,-6.8592695E-3,-5.4609597E-1,9.742766E-2,2.3330817E-2,9.9174374E-1,-7.8532726E-1,-1.252846E0,-1.673908E-2,-6.161356E-2,3.6413055E-2,-1.4897232E-2,-4.253851E-1,1.4137353E-1,-3.869589E-1,-9.744315E-1,-8.1266165E-1,1.6403547E-2,6.4114237E-1,4.9469154E-2,7.73086E-1,-1.5123643E-2,-5.7979714E-2,-9.991536E-3,2.5735646E-1,1.0021691E0,2.5689447E-2,-3.7158765E-2,-6.965993E-1,1.03011085E-2,-2.1949226E-1,4.95835E-1,-2.1270756E-2,2.6641939E-2,1.1946505E0,1.666916E-2,-1.8537402E-2,-5.7310995E-2,-4.749446E-2,-6.6499196E-2,-4.0011358E-2,-6.252382E-3,3.6127433E-2,-8.9070955E-3,-3.432811E-3,-5.499514E-2,-1.7818341E-2,-5.407352E-2,-1.4547566E-2,-5.1324744E-2,2.1422964E-2,5.8535673E-2,-1.4507147E-2,1.3819762E-2,5.7275143E-2,4.393488E-3,5.0600242E-2,-1.2099622E-2,5.237779E-2,5.361048E-3,-5.5948596E-2,-2.3895038E-2,-4.733181E-2,1.0655269E-3,3.531327E-2,-6.099287E-3,3.520641E-2,7.164896E-2],"categories":[],"categories_nodes":[],"categories_segments":[],"categories_sizes":[],"default_left":[0,0,0,0,0,0,0,0,0,0,0,0,0,0,0,0,0,0,0,0,0,0,0,0,0,0,0,0,0,0,0,0,0,0,0,0,0,0,0,0,0,0,0,0,0,0,0,0,0,0,0,0,0,0,0,0,0,0,0,0,0,0,0,0,0,0,0,0,0,0,0,0,0,0,0,0,0,0,0,0,0,0,0,0,0,0,0,0,0,0,0,0,0],"id":13,"left_children":[1,3,5,7,9,11,13,15,17,19,21,23,25,27,29,-1,31,33,35,37,39,41,43,45,47,49,51,53,55,57,59,61,63,-1,-1,-1,-1,65,67,69,71,73,-1,75,77,79,-1,-1,-1,81,83,-1,-1,85,-1,87,89,-1,-1,91,-1,-1,-1,-1,-1,-1,-1,-1,-1,-1,-1,-1,-1,-1,-1,-1,-1,-1,-1,-1,-1,-1,-1,-1,-1,-1,-1,-1,-1,-1,-1,-1,-1],"loss_changes":[3.9795465E2,1.90558E2,1.4178194E2,5.8909576E1,1.5811504E2,7.08194E1,5.407955E1,1.3240021E1,2.6717083E1,5.086821E1,7.00921E1,4.6238625E1,4.210083E1,4.1705074E1,3.6241592E1,0E0,6.9909363E0,1.0596941E1,1.3332703E1,2.840599E1,2.8117355E1,2.2421688E1,6.431998E1,2.0209408E1,1.1296194E1,2.8913544E1,2.1069206E1,1.7749035E1,3.6223064E1,1.6555716E1,1.1060425E1,6.456274E0,4.1073303E0,0E0,0E0,0E0,0E0,2.8695072E1,2.5299244E1,3.022327E1,1.4181747E1,1.0165863E1,0E0,2.9125832E1,4.71643E1,1.6473915E1,0E0,0E0,0E0,2.2850136E1,2.0554688E1,0E0,0E0,1.14575615E1,0E0,2.8035233E1,1.6600735E1,0E0,0E0,6.6111603E0,0E0,0E0,0E0,0E0,0E0,0E0,0E0,0E0,0E0,0E0,0E0,0E0,0E0,0E0,0E0,0E0,0E0,0E0,0E0,0E0,0E0,0E0,0E0,0E0,0E0,0E0,0E0,0E0,0E0,0E0,0E0,0E0,0E0],"parents":[2147483647,0,0,1,1,2,2,3,3,4,4,5,5,6,6,7,7,8,8,9,9,10,10,11,11,12,12,13,13,14,14,16,16,17,17,18,18,19,19,20,20,21,21,22,22,23,23,24,24,25,25,26,26,27,27,28,28,29,29,30,30,31,31,32,32,37,37,38,38,39,39,40,40,41,41,43,43,44,44,45,45,49,49,50,50,53,53,55,55,56,56,59,59],"right_children":[2,4,6,8,10,12,14,16,18,20,22,24,26,28,30,-1,32,34,36,38,40,42,44,46,48,50,52,54,56,58,60,62,64,-1,-1,-1,-1,66,68,70,72,74,-1,76,78,80,-1,-1,-1,82,84,-1,-1,86,-1,88,90,-1,-1,92,-1,-1,-1,-1,-1,-1,-1,-1,-1,-1,-1,-1,-1,-1,-1,-1,-1,-1,-1,-1,-1,-1,-1,-1,-1,-1,-1,-1,-1,-1,-1,-1,-1],"split_conditions":[4.6463333E-2,6.528456E-3,2.9208923E-2,-6.1975375E-2,-7.860937E-2,-8.851989E-2,-1.9539079E-2,-3.4108587E-2,-3.68105E-2,5.730717E-2,-6.191912E-2,3.251281E-2,-2.53218E-2,-6.2345225E-2,-1.8396968E-2,-2.599121E-2,3.2552227E-2,-4.5202687E-2,-2.4061047E-2,6.268965E-2,-4.0079754E-2,7.404791E-2,1.2900655E-2,5.697856E-2,2.9910041E-2,-6.4455345E-2,-5.5528767E-2,3.887287E-2,6.3617125E-2,5.432247E-2,3.1085651E-2,-5.7974517E-2,-3.3876985E-2,-1.673908E-2,-6.161356E-2,3.6413055E-2,-1.4897232E-2,-3.2424603E-2,3.430511E-2,4.8418023E-2,2.6642356E-2,3.725343E-2,1.6403547E-2,-3.0713854E-2,7.643782E-2,5.7941556E-2,-1.5123643E-2,-5.7979714E-2,-9.991536E-3,3.716401E-2,5.9685614E-2,2.5689447E-2,-3.7158765E-2,-4.488579E-2,1.03011085E-2,-5.712016E-2,-2.3015004E-2,-2.1270756E-2,2.6641939E-2,1.5179119E-2,1.666916E-2,-1.8537402E-2,-5.7310995E-2,-4.749446E-2,-6.6499196E-2,-4.0011358E-2,-6.252382E-3,3.6127433E-2,-8.9070955E-3,-3.432811E-3,-5.499514E-2,-1.7818341E-2,-5.407352E-2,-1.4547566E-2,-5.1324744E-2,2.1422964E-2,5.8535673E-2,-1.4507147E-2,1.3819762E-2,5.7275143E-2,4.393488E-3,5.0600242E-2,-1.2099622E-2,5.237779E-2,5.361048E-3,-5.5948596E-2,-2.3895038E-2,-4.733181E-2,1.0655269E-3,3.531327E-2,-6.099287E-3,3.520641E-2,7.164896E-2],"split_indices":[66,128,158,57,94,94,348,215,172,299,184,325,376,227,149,0,76,36,288,188,99,255,158,299,54,196,50,216,188,255,325,372,99,0,0,0,0,149,45,145,346,25,0,170,135,144,0,0,0,128,325,0,0,149,0,184,116,0,0,352,0,0,0,0,0,0,0,0,0,0,0,0,0,0,0,0,0,0,0,0,0,0,0,0,0,0,0,0,0,0,0,0,0],"split_type":[0,0,0,0,0,0,0,0,0,0,0,0,0,0,0,0,0,0,0,0,0,0,0,0,0,0,0,0,0,0,0,0,0,0,0,0,0,0,0,0,0,0,0,0,0,0,0,0,0,0,0,0,0,0,0,0,0,0,0,0,0,0,0,0,0,0,0,0,0,0,0,0,0,0,0,0,0,0,0,0,0,0,0,0,0,0,0,0,0,0,0,0,0],"sum_hessian":[3.493276E3,2.1422083E3,1.3510676E3,4.1584644E2,1.7263618E3,7.5631726E2,5.947503E2,3.1062668E2,1.05219765E2,7.410306E2,9.853313E2,1.3656262E2,6.1975464E2,4.3955432E2,1.5519601E2,3.6820915E1,2.7380576E2,5.525143E1,4.9968334E1,3.8932513E2,3.5170544E2,1.1333049E2,8.720008E2,8.722745E1,4.9335175E1,5.6679156E2,5.2963074E1,1.5453094E2,2.8502338E2,7.0418236E1,8.477777E1,4.4991825E1,2.2881393E2,3.3211052E1,2.204038E1,2.860362E1,2.1364714E1,2.5477702E2,1.3454811E2,1.3251488E2,2.1919057E2,9.280261E1,2.0527884E1,2.620492E2,6.099516E2,6.3950924E1,2.327652E1,2.5823511E1,2.3511663E1,5.8987442E1,5.078041E2,3.120223E1,2.1760845E1,1.2882593E2,2.5705023E1,1.589962E2,1.2602717E2,3.7529453E1,3.2888783E1,6.418222E1,2.059555E1,2.1881979E1,2.3109846E1,4.9138462E1,1.7967546E2,1.1259108E2,1.4218594E2,4.728279E1,8.726532E1,9.2370995E1,4.0143883E1,3.2995705E1,1.8619485E2,2.7665337E1,6.5137276E1,1.8825316E2,7.3796036E1,2.4420369E2,3.6574792E2,4.099714E1,